0.509132420156 -0.178428010011 0.177259437497 -2.09312420598 -1.77701987531 -0.30463761619 -0.0695079985891 -0.694420035431 1.45611538925 0.084229978132 -0.782464355125 -0.0609750183946 0.292591841179 2.21594983556 -0.228555085697 -0.0356228603781 0.571683907935 -0.197676078965 0.833502174224 0.282227584024 -0.332397298732 -0.740273771683 -1.77905708369 2.18176590617 -0.434765237729 1.41484356652 -1.8907030346 0.00596053834556 -2.10279163178 -1.05981925671 -0.0176273958788
-0.418431915108 0.126849470768 -0.0140954763421 0.215026748336 -0.845942876702 0.455799836296 -0.209620496489 -1.28255282609 -0.202752790448 -0.00893273570557 -0.280142019842 1.14313198743 1.00105215423 0.822847134308 0.977959924765 -0.080633788591 0.394707611457 1.04351716212 0.000457243435857 -1.28800613321 -0.823751524534 0.38212545985 0.519298479935 0.255715219239 -1.13025421229 -1.17686357095 0.11133534451 -0.158820147957 0.317812338644 -0.77235444393 0.0963538462317
-1.53152150181 0.851784652139 -0.6191402875 3.93199830934 1.35723930344 2.3546287386 -0.191669845805 -1.76223025549 -2.24249148775 0.0448043640102 0.114255150129 3.16366830535 1.93786781491 -0.945596293142 3.13943020871 0.0289060079269 -0.295322154267 2.88565223485 -1.00074842226 -3.31185630561 -1.47192665748 2.66566959537 4.12884924716 -2.33235787867 -2.91317450952 -3.16501103493 3.23423637325 -0.154077946416 3.87708130396 0.769364458112 0.0232077570383
0.241070615187 -0.729250930905 0.350390749097 -2.22652774647 -1.01743289039 0.0334205628264 -0.0380544378703 -0.70942678338 0.888398640975 -0.0414702315979 -0.532667743112 0.28084455229 -0.269909416798 1.06216859438 -0.732503835043 -0.134660356355 0.817822873895 -0.809384768644 0.0865048896327 0.21047720815 -0.0753673210753 -0.706575600996 -1.57971434423 2.05091407747 0.0600990841904 1.08840528357 -0.940034032614 -0.198595731732 -2.2782883598 0.0691608328451 0.0341976703631
-0.557974913402 -0.116573302315 0.291740653001 -0.238165218316 -0.506122647313 -0.0416379175649 -0.202920957126 -1.29464584275 0.244082382663 -0.0117406985362 -0.232297224251 0.377827214935 0.742723063076 0.312044770101 -0.150561183717 -0.113183952425 0.512461472152 0.666322160434 -0.0866507741541 -0.971797666329 -0.638431147003 0.567497119437 0.0213785382894 0.298120739857 -0.52032689322 -0.697820315217 -0.352119481893 -0.0929756496061 -0.0736831496661 -0.467307131346 -0.0369385263308
-1.51013645225 1.13833280982 0.0291546871918 3.1157672952 0.66014927528 0.71460299208 -0.182721249085 -1.64115513975 -1.0967039343 -0.0364219007824 0.0207779491479 1.31712978843 2.07833163919 -0.970883394143 0.750342440146 -0.0501621121721 0.0723840509982 2.65535449978 -0.26222848505 -2.54117504442 -0.828844066784 3.11476829837 2.85523485629 -1.80898601973 -1.91857678841 -2.27157324813 1.40587362871 -0.14233365908 3.59041039395 0.114201715041 -0.0864325379065
-0.405175354006 -1.08327375317 0.344570323574 -2.23922254956 0.128503075979 0.400171337547 -0.0953215418038 -0.665305572305 0.306102773096 0.0913946362823 -0.474435785703 0.363759906226 -0.457514335154 0.670897743157 -0.153843056531 -0.0250643135597 0.726328472593 -1.26055810408 -0.590195172363 0.970610643655 0.133863064932 -0.977912254951 -1.17539450213 1.89874894301 -0.0604121085205 0.496073190309 0.157835133864 -0.132691034841 -1.70250111927 0.91110500042 -0.0373031430292
-0.880057851095 -0.0491992371941 0.258751572382 -0.229460503416 0.140917071789 0.0183938131212 0.00242087309619 -1.01538464312 0.0643432307779 0.0461992579667 -0.145387005924 0.192266802921 0.467678458663 0.255815906149 -0.106742846537 -0.146446829062 0.557678180542 0.10286770163 -0.379188090226 -0.049196221337 -0.389059533008 0.287664476923 0.13449053083 0.31429591133 -0.701839974539 -1.05022672332 -0.0492666573192 -0.188703000097 0.350260540388 -0.135841688146 -0.0795644042257
-1.34707616786 1.44588876635 0.0783125286303 2.95580775893 0.593801318573 0.369312611644 -0.0722527602883 -1.03557077146 -0.740767290582 -0.1801571478 0.121862098033 0.453868490246 1.94762236778 -0.424797823971 -0.140593671892 -0.127352570293 -0.109975156266 2.06366465771 -0.160913717627 -1.1238517979 -0.946561511568 3.105027443 2.34189179254 -1.83185253851 -1.71549732441 -2.08550207216 0.603041893042 -0.0540593519414 3.64575539488 -0.151996472213 -0.0142762893182
-0.448830980588 -0.825615049417 0.34351764765 -2.1790085959 0.306217039041 0.292215114307 0.00926992178693 -0.0691583599562 0.671845919126 -0.0276134791655 -0.511394670569 0.0451204106539 -0.247722114521 0.365942565488 -1.06624531668 -0.0180109730053 0.502554795872 -0.700144549414 -0.263269311565 0.756951514299 -0.18951673185 -0.835209814468 -1.04912709832 1.43390916334 -0.235446804588 0.372129229562 0.182827670142 -0.0611896502678 -1.65497321182 0.809333541809 0.0694219324264
-0.803799374286 0.0297105118248 0.0955833870191 -0.190607583393 0.219662777473 0.200179208411 -0.148873869288 -0.443228861616 0.348783946289 -0.0386153199398 -0.111666792301 -0.0330010986054 0.706303242543 0.150311059456 -0.79756795236 -0.124044401927 0.0660327493823 0.558978348908 -0.395925301288 0.0539258139403 -0.705185240186 0.333422897048 0.134394124779 -0.337956661418 -1.09238261784 -1.06802291705 0.113516169497 -0.190523916871 0.591206257589 -0.272137713184 -0.0237991719908
-1.16406811393 1.60078009852 0.0559150435768 2.70604745567 0.447346181927 -0.108820809999 -0.0758766968924 -0.506574111342 -0.289889623097 -0.133586958828 -0.0568620356039 -0.193809774845 2.06445028066 -0.375962153849 -1.1708954288 0.0292788866064 -0.207043933394 2.42260071914 0.0676535028277 -0.394745279044 -1.08883561922 2.7901892422 1.58180648582 -1.95689667317 -1.66832601019 -1.72363725239 0.136726177955 0.00245503886559 3.64862804114 -0.419097070467 0.0101147712483
-0.402215394097 -0.955740542226 0.280982119642 -2.32678700619 0.576387368521 0.525686602086 -0.152188860369 0.49219164563 -0.0408054444833 -0.0997432912054 -0.344253769728 0.262042805474 -0.129643301677 0.0958286033109 -0.915980500718 -0.166266637864 0.700033210041 -0.548674668667 0.0844373364124 0.433482309307 -0.0348679105118 -0.770711897429 -0.830495319749 1.35094442508 -0.280781283665 1.03491718048 0.0682470835363 -0.0128271999003 -1.83154237371 0.79449865495 0.0589718518963
-0.545458872972 2.57287754735e-05 0.150237125493 -0.427780706548 0.186551760177 -0.28178237079 -0.0579617398011 0.14431396116 -0.253748698109 -0.10328412674 -0.13732169471 -0.378838259294 1.02095163072 -0.0476041411492 -0.799999117887 -0.130322208761 0.394007936543 0.777941030493 0.135193530894 -0.149972638756 -0.698910949774 0.782644794613 0.0498397970077 -0.422486097412 -1.01832363527 -0.362455585186 -0.199503745223 -0.179880124144 0.441887282552 -0.485485785171 0.0630407507796
-0.880944509164 1.76425376068 0.0184831448539 2.77252770812 -0.0645898290345 -0.7210789438 -0.168426729708 -0.0118134496929 -0.757811256592 -0.150377704852 0.122612119127 -0.986578161434 2.58157610719 -0.110957015564 -1.248690913 -0.105397134502 -0.0586225816712 2.98201591718 0.528818723707 -0.384286176677 -0.916398491279 3.32084065768 1.22797240827 -2.2657494916 -1.81850647546 -1.19787096356 -0.527771638239 0.0248528593225 3.76866181722 -0.797445213082 0.0615327800957
0.0778492889207 -1.36433827278 0.489084292087 -2.33240799722 1.07580582497 0.195946460658 0.018900686733 0.328727160509 -0.408099134898 -0.0627396774626 -0.217775585774 0.0424366835116 -0.321095634726 -0.102995302189 0.24129540985 -0.0224340449983 0.782455341059 -0.955399251563 -0.407919927211 0.407350490203 -0.0812622314245 -0.603981795733 -0.627485108656 1.96925774894 0.00185667439515 0.890437636461 0.168644117024 -0.00591355230926 -1.76563482974 0.477696261033 0.0589021903352
0.117446315178 -0.259847038676 0.187944587271 -0.378874118718 0.335602784251 -0.575657300842 -0.112547705338 0.195862241572 -0.196773370349 -0.156382517097 0.0569210689843 -0.453531508775 0.676857539875 -0.0349117596764 0.116686496255 -0.0888834630824 0.223378681045 0.221049846986 -0.150337014178 -0.0609619493372 -0.701284789085 0.881286706735 0.0919350134636 0.264556488625 -0.601002136549 -0.409859875429 -0.178019053367 -0.174050628527 0.407792267009 -0.480928306403 0.0455549317851
-0.13827698051 1.73004694973 -0.122763370023 2.68617777236 -0.637977967491 -1.01521198103 -0.00532951826925 0.154519173754 -0.159109523554 -0.227910994205 -0.052441176466 -1.13924564532 2.07783266072 0.468451670208 -0.814183859237 0.0196651094173 -0.0840505815177 2.34399504388 0.683469917213 0.0116751549983 -0.819254718708 3.46078274764 1.12535646798 -1.20559822155 -1.41382339157 -0.719631366355 -0.711738469621 0.0149868058082 3.5165431452 -0.870590115554 -0.00630842472034
0.148775312272 -1.75572180309 0.377710938534 -2.1471928835 1.31481852706 -0.0148199192537 0.0174023332388 0.0638857811598 -1.16780066566 -0.15317415792 0.0545399255148 0.240654971693 -0.196765024799 -1.7742823353 1.09023572693 -0.128278330539 0.789464988389 -0.953550411487 -1.61409289529 0.361103703676 -0.0404259157261 -0.669647259477 -0.759153930157 1.48416651769 -0.0100144035574 0.521774504112 0.698400327852 -0.138857034982 -1.95607647931 1.00394360039 -0.0362958199541
0.65707864576 -0.129655769869 0.149818013985 -0.682891726041 0.462066319067 -0.363898635319 -0.0886055983832 0.197990072618 -0.139831699875 -0.250992209614 0.0246627794466 -0.159397932129 0.66580029852 -0.93124523685 0.410584928149 -0.0263526711383 0.251235086774 0.0737016659158 -0.657150772634 0.668509677658 -0.522333651961 0.633174954504 -0.112862358454 0.270921267718 -0.998975650585 -0.25827810301 -0.00555656544026 0.00903928181687 0.11613146386 -0.286481192303 -0.0946677343769
0.873691098407 2.30536279652 -0.245971158582 2.18850449693 -0.909303552927 -1.32176151575 -0.00188235411425 0.566092558018 1.363113437 -0.18162568168 -0.149922062688 -1.15365938261 2.10934719181 0.466876372318 -0.921133425221 -0.0514965675226 -0.226224633255 2.26767891811 1.10762479994 1.3629216648 -0.688936558508 3.22103083799 1.09982770948 -1.36032261453 -1.84572010522 -0.413153451794 -0.739521899766 0.12058157159 3.32036438075 -0.724484275006 -0.0235428196698
-0.0323682551888 -2.07755449206 0.427103804359 -2.05048002019 1.38736057278 -0.410369314915 -0.195961416346 0.10402189223 -1.93411521121 -0.0965961511557 -0.120083169547 0.0702325083975 0.0134319187337 -3.1275388234 1.41600666113 -0.0510144596214 0.794140733189 -0.48237489413 -2.31761256083 0.104369914273 0.0540318563023 -0.469416634322 -0.618270097556 2.04961534027 0.277071430281 0.776470510092 1.06521082658 -0.0929165079055 -1.61194145073 1.32545542743 -0.0685352704006
1.29452499336 0.375187597059 -0.037327597954 -0.63143213248 0.159651252856 -1.09884298057 0.0510856642683 0.664945814344 0.358788864554 -0.152291773599 -0.260193197337 -0.596322025547 0.998283024311 -1.04940136426 0.557707889368 -0.0680465894891 -0.0911808533666 0.732800774995 -0.0206782508724 1.16904440126 -0.83037668901 0.992056898575 -0.323506359907 0.133098959675 -1.35589222747 0.20880894411 -0.422990279367 0.00530569987114 0.332606506489 -0.8671789609 0.0164739309654
2.63931997191 3.89529837325 -0.779454732043 1.9336547748 -1.76996774738 -2.26349917947 0.183855704795 1.99188956158 3.83588631578 -0.22318156777 -0.735312178775 -1.95581590588 2.32727509566 1.77735913415 -1.20678491935 0.146515813939 -0.870111819471 2.73444137204 3.20788102968 3.05100602436 -1.46708805569 3.54047209174 0.594204971595 -2.31163130912 -3.07307320337 0.27662071372 -1.8520480774 0.239710364282 3.74544424609 -2.36569425606 0.0352193469009
0.498689816584 0.0491452272909 -0.0683541058332 -1.85312816516 -1.69128533693 -0.588963066138 -0.133087972294 -0.395540814971 0.676143723278 -0.169147017541 -0.304942217354 -0.756681746185 0.296340731027 1.666424888 -0.61960538935 -0.052489908208 0.292287436103 0.130831081607 0.619361052894 0.0355666898153 -0.205102922401 -0.180061344759 -1.7780563531 1.51156939353 -0.281910152099 1.04354183764 -1.96621611725 -0.00660714802395 -1.82583655493 -1.13957975858 -0.00640335422178
-0.247240811742 -0.103211544299 0.0426277197846 -0.919611978112 -0.702294940772 0.0645002041508 -0.0216541086255 -0.800297360701 -0.665113066607 0.0229111531501 -0.108310883117 0.340382948114 0.498053960242 0.514737854461 0.873483282961 -0.0597031959375 0.242052045674 0.625429304308 -0.125634782582 -1.08467274891 -0.381480123156 0.266134239486 -0.368422285898 0.340598348971 -0.410343351881 -0.40440256028 -0.0565777804653 -0.123165020779 -0.680263022444 -0.293324474244 0.0128932494136
-0.915380791334 0.0588794513204 -0.329089552078 0.936793080717 1.22994442867 1.92180449399 -0.148293797227 -0.852542460355 -1.65334706673 0.104446605479 0.00415675866538 2.49655790642 0.807918591197 -0.726007972347 2.98942655151 -0.0450912536058 -0.348660448148 1.19668888269 -0.706312457123 -2.19055628011 -0.811652781213 0.964982592201 2.41144095815 -1.77002960298 -1.66216005221 -1.54110686074 3.15979453525 -0.234558833486 1.13134962756 1.24089446566 0.0936164550261
0.128100010471 -0.0849921862394 -0.0985902395495 -1.37916644788 -1.10012255497 -0.158411419615 -0.0401766130421 -0.197579846946 0.558242787079 -0.0825654297951 -0.359595114313 0.177530043406 0.210783571256 0.662705632462 -0.654586272541 -0.181635253 0.203946984885 0.258480015126 0.124980556124 0.162319311253 -0.331757315987 -0.00209114889774 -0.720214951437 1.23249728409 -0.368463125473 -0.01331220293 -1.14402457443 -0.0343388246005 -1.40071151181 0.00229202941228 0.0280270220412
-0.131947634167 -0.0154869391521 0.110691122602 -0.936222473343 -0.775210270064 -0.206685760478 -0.0255216667723 -0.671826115427 0.208237887088 -0.042691320627 -0.109252834541 0.284798527454 0.348054001684 0.247635547356 -0.2163480881 -0.0908169889501 0.305080096744 0.539865721429 0.0427477917741 -0.39721162916 -0.35433355128 0.0502502512347 -0.203998906081 0.333492115813 -0.528087922199 -0.620274541557 -0.40889957658 -0.0893448657551 -0.752694109767 0.11305171645 -0.011103106601
-0.855834570283 0.658660855793 0.0634599203396 0.442853789409 0.353126192237 0.4839049854 -0.0499364732054 -0.880445990571 -0.355478502444 0.0292010956987 -0.137448741981 0.872984110225 0.814698550342 -0.450810821264 0.469451537052 -0.097687082199 0.156690874198 1.23426869749 -0.105144397387 -1.61729204543 -0.210042267601 1.08743811725 1.50762821434 -0.70230571025 -1.44161542691 -0.770999955497 1.04189848493 -0.12982278279 0.912313341857 0.883681981115 -0.0123146443648
0.22674198939 -0.312334743231 0.179613964259 -1.4589400294 -0.0810140981432 -0.261734534563 -0.111476050179 -0.0961894447853 0.481549587206 0.0148697784274 -0.18818152508 -0.297453876189 -0.02903545287 0.0537225247319 -0.61527676487 -0.142202506577 0.299031227233 -0.169360656318 -0.273531016484 0.789778486585 -0.137968512168 -0.405633128898 -0.71536391079 1.21876598829 -0.348044482398 0.110705646378 -0.56523264563 -0.128450201703 -1.23335077801 0.0517001672295 0.0701950666983
0.104243496844 -0.319986594836 0.203946373268 -0.979999922204 0.133642503079 -0.307074823918 -0.17022790561 -0.333200930017 0.306323571322 0.0261590889355 -0.171063212104 -0.234720210308 0.17370162867 0.166604226196 -0.227230708934 -0.143488753705 0.247783178917 0.101121025933 -0.323477441121 0.262836408661 -0.340238705049 -0.288643555906 -0.241206815141 0.195988889788 -0.607110120219 -0.64286181955 -0.38035176995 -0.0909640203285 -0.61337994756 0.126706782212 0.0956739230208
-0.439137319269 0.280006768234 0.0308822491443 0.444780795192 0.900299982856 0.0804517680253 -0.111291124949 -0.29783315914 -0.069652081343 -0.12917087022 -0.0151976127216 0.00785374217114 0.698478925793 -0.346819655516 -0.0851700368325 -0.166582628855 -0.17597425432 0.77572142125 -0.0851673739944 -0.438962483345 -0.277860604927 0.865697089399 0.967616902374 -1.10497658243 -1.05770314222 -0.603241722097 0.271395659029 -0.062034161675 0.975760159901 0.81333215862 -0.0101879532235
-0.172994665297 -0.00191759828671 0.135359339236 -1.53654938376 -0.498596082436 0.524063481249 -0.129243777005 0.074910353186 0.262282245074 -0.0880043784644 -0.434932622476 0.244707418202 -0.0124836318335 -0.119094665238 -1.08890077438 -0.170586605302 0.149207580982 0.0749196099665 -0.481132638596 0.404569813186 0.011013549955 -0.41026399649 -0.106469451374 0.959401587965 0.378974656722 0.644183362753 -0.119215613358 -0.115399150857 -1.01174537763 0.406871744832 0.0688518994661
-0.313063930072 -0.234523735809 0.230674247044 -1.04294717455 -0.168651004231 0.113691152114 0.00355157616116 -0.493208962683 -0.0649009965206 0.0309551177149 -0.0474754215592 -0.0552868410117 0.304440008861 -0.18321630942 -0.694095636727 -0.0926044113958 0.183365742863 0.399966256148 -0.721071402858 -0.463167924909 -0.271226019448 -0.250138451195 0.0829856387907 0.197591217264 0.260765514435 -0.271736640306 0.262521098357 -0.0888167924868 -0.314728941276 0.156154386448 -0.041422798519
-0.619678568335 0.31949916436 0.217512337713 0.05999053653 0.219275742758 0.143414167811 -0.0189124785839 -0.240281018196 -0.422166614012 -0.101698244091 0.0845419543922 -0.0482024645624 0.824743137074 -0.142211594481 -0.608999187945 -0.00376996574466 0.182914654186 0.923134024026 -0.487213525751 -0.715221068183 -0.138375188812 0.703124323474 0.570861564283 -1.02280794968 -0.279533832793 -0.176389230129 0.420439239594 -0.0443469106803 0.918818439003 0.444828728414 -0.0375732205993
-0.242043821298 0.0745843790919 -0.0683369370214 -1.16178867168 -0.164002066391 0.562653019648 -0.0130227944937 0.428519403713 -0.375462283599 -0.0553592211985 -0.508127945278 0.324153783443 -0.146706959318 -0.176207035562 -0.970198907719 -0.137705464083 0.116836946233 -0.132325158308 -0.0804341664459 0.315021841008 -0.204158412406 -0.013808741391 0.121149624508 1.12276014051 0.160468341772 0.302070274891 0.136368789881 0.0211746944474 -1.30519330215 -0.138810360889 -0.00295087354489
-0.372537218742 0.0297479169694 0.163030238821 -0.386324738476 -0.276407741699 -0.090028959202 -0.112496890493 0.117749163197 -0.374350100957 -0.0356912969144 -0.0700892494766 -0.149255083389 0.455071996999 -0.30953542692 -0.553133001945 -0.167607535814 0.0478468146224 0.195970354603 -0.320558888144 -0.360789624854 -0.482217680604 0.273940920894 -0.0737930529601 0.332730177747 0.0522114111168 -0.350064338462 0.27714051698 -0.0372172886802 -0.531040546764 -0.292246026429 0.067283571669
-0.467841080664 0.32245753642 0.092668626069 0.55794739927 0.126264410558 -0.0901290097248 -0.176244751943 0.0209385919372 -0.758290048216 -0.0199481781344 0.140359034647 -0.1508121366 0.831699288862 0.00400829853392 -0.521115250794 -0.0545263236091 -0.0100862488549 0.802610838923 -0.14141993285 -0.293975529976 -0.370490479863 0.866891673618 0.48740160036 -0.916861711821 -0.555598968748 -0.605037423822 0.63822229415 -0.101007328372 0.641599072476 0.00544506262572 0.0541394667852
0.131461163229 0.0819718913222 -0.000137027810402 -1.05445330827 0.0540649080481 -0.378179074163 -0.127123255813 0.521446535588 0.0311551624298 -0.0504800275527 -0.25453968419 -0.307413510049 -0.00664203547468 0.249820833693 -0.118745118032 -0.155731008679 0.320245583319 -0.0108452158783 0.0771288369449 -0.00125254114205 -0.337684396886 0.0229172208953 -0.0954082835434 0.70251160221 0.192005639198 0.4237385343 -0.501455992739 -0.134954274945 -1.06434638757 -0.130373343887 -0.0701220650652
0.119899444728 0.0347113238291 0.0870346479128 -0.281590049784 -0.103859963526 -0.514152179823 -0.0171762344835 0.263520673714 -0.396574140982 -0.151767980514 -0.0278970986989 -0.491996124183 0.339656517333 -0.0698801132721 0.223539037493 -0.0920424372734 0.159096839101 0.0680641523856 0.00912022700831 -0.235080547125 -0.515079324044 0.35248843777 0.0253287229242 0.175757296372 0.227950139099 -0.125858115053 -0.22165199984 -0.122269678359 -0.544016613953 0.0218786019432 -0.0770993918388
-0.190194628086 0.830228137081 -0.158655635365 0.819849998954 -0.183988150934 -0.482767916105 -0.031510018274 0.217687039593 -0.0645404137137 -0.191733422415 -0.0699315046872 -0.591319443248 0.745166281378 0.260403979065 0.0991953799054 0.0403049533261 -0.166916120381 0.750722779633 0.317497482177 0.115116359157 -0.394456962645 1.2838848919 0.437994095537 -0.918881307808 -0.29405194298 0.0225809232274 -0.0105350399261 -0.127587040367 0.822568083289 0.167754761077 -0.0391382983091
0.0572976950855 -0.445133720451 0.143618448821 -0.832414955514 0.56290554815 -0.262858050274 -0.0964804066121 0.0821428720293 -0.911434645548 -0.0978469040519 -0.0976227777926 0.0884216067989 0.159775455894 -1.23989294051 0.703993241807 -0.00882173987743 0.29666013812 0.330220991145 -0.882766396444 0.220780656477 -0.102498921488 -0.0975995670916 0.13599484794 0.52485222756 0.106352957128 -0.00817977295813 0.5171975968 -0.0441581571687 -1.01353808649 0.36786494899 -0.064762656101
0.378867414529 0.0401293995416 0.00472039287758 -0.629460640541 0.0747102451336 -0.361118853446 -0.05849922952 0.149541947508 -0.379114957032 -0.208566532841 0.0506329828721 -0.21512896303 0.420391354894 -0.841547563041 0.409953205691 -0.122422774709 0.0327055020475 0.212091175207 -0.567743368367 0.294411638652 -0.318811427418 0.0915820974562 0.0648902693942 0.00353471954306 -0.351724715523 0.0267096390348 0.365178665945 -0.139497840329 -0.691308997201 -0.091780970475 0.0855322363362
0.733626093742 1.50585320521 -0.405314229888 0.507059153205 -0.705804228952 -0.812541516565 0.0352333461228 0.510142256517 1.12945647554 -0.0697264296253 -0.212451022701 -0.710293612165 0.851632789594 0.406567740945 -0.412119782601 -0.0944108179916 -0.312176848543 0.781487931406 0.701854817237 1.55770381229 -0.484308360199 1.13407727067 0.612201614126 -1.10471432733 -1.22355857934 0.418631793738 0.224999134716 0.00277699632175 0.954546772053 -0.0465209431214 -0.0770185079807
-0.542954116857 -1.76336907139 -0.05186561352 -0.812114597011 1.23395817634 -0.0225474105785 -0.0941701602212 -0.323165040296 -2.03972493214 -0.0782360431295 0.202057003055 0.518829420319 0.128732450408 -2.45739304965 1.47124018418 -0.184326858222 0.489876995101 0.397701008634 -2.07469191996 -0.625414215628 -0.454110818197 -0.251820624607 0.134302765 1.02917399791 0.0699348493148 -0.474538404758 1.25207623163 -0.0303767466387 -1.06142608638 1.14345985223 -0.0431332285857
0.702415322748 -0.0761280179651 -0.270848802235 -0.652264902633 0.176075563913 -0.703420723909 -0.0643326760114 0.383936118774 0.253993953331 -0.0973098432399 -0.0434396632742 -0.0942542774766 0.304281004395 -0.788516067184 0.87045958813 -0.0310074594857 -0.00901269933518 0.314244897717 -0.114044535118 0.688670978605 -1.01295061849 0.0340990787968 -0.318986232506 -0.0796730684976 -1.00142412022 0.0679894293253 -0.0432047460178 -0.0237847655278 -0.265192940537 -0.592456816567 0.0597182095771
2.4874561337 2.65584329716 -0.870053114294 0.518479417211 -1.4591076778 -1.3671341769 0.135058092576 1.47739835268 3.58314800944 -0.20321082757 -0.736914338751 -1.10664964003 0.923556642671 1.91783931853 -0.572036777069 0.0657838687364 -0.814831897896 1.41722894801 2.88258841297 3.15464157179 -1.38121308837 1.45079921619 0.156549884155 -1.80386212012 -2.45526182536 0.814979934288 -1.21836520793 0.0741577955502 1.69458708489 -1.63825116842 0.0664932315187
0.805610976055 0.777602560298 -0.356234139661 -0.318561317891 -2.03144651824 -0.768267507307 -0.0501596975502 -0.571224567322 0.787222428938 -0.00111784414969 -0.362084227824 -0.734722794233 0.654503306911 1.55227536756 -0.749103101345 -0.0914541567451 -0.19178459343 0.22864196168 1.02703860015 0.435696310624 0.0888209775495 0.23158573994 -1.45750693381 0.772436369731 -0.00256270972807 0.498163616039 -1.76469385034 -0.0488650371219 -0.516262039371 -0.840600830696 -0.057749039208
0.0701918461635 0.106030498298 -0.306797269209 -0.272173462772 -0.956501782473 0.0278461203308 -0.141028112301 -0.807839669776 -0.557381966738 -0.0401683380697 -0.16794066754 0.634735943895 0.42755054669 0.198123517124 0.770783573276 -0.104104676197 -0.0185494721134 0.20267323477 -0.156475539537 -0.669734717266 -0.145086076568 -0.0107291117717 -0.488986461024 -0.0242694195298 -0.707778406289 -0.712864926658 0.390008554941 -0.0293606413134 -0.240827830877 0.27010778047 -0.0392648901734
-0.646141534518 -0.102812772291 -0.604261065786 0.0116569870307 1.32253785477 2.01789925934 -0.0471502551496 -0.864905253264 -1.37837205443 0.0734929133127 0.00338868782423 2.7368707399 0.0544180101745 -0.839228205451 2.94618199535 0.0269357277985 -0.412036044888 -0.0482734554986 -0.704824155559 -1.66010738786 -0.203339409561 -0.0563959276217 2.0119076457 -1.53059697393 -1.42190375131 -1.3408441003 3.42044910185 -0.225358704804 0.0267795236095 1.9088992232 -0.0883991559552
0.367190166148 0.472072953245 -0.537608738083 0.198067820474 -0.972317283705 -0.129013863938 -0.141728365483 -0.554045407738 0.332791693861 -0.0777200469252 -0.14685928357 -0.111901309677 0.482210497949 0.656068651853 -0.971728067016 -0.120931265891 -0.135929935974 0.049486963017 0.254916130064 0.601077976698 -0.187327164164 -0.118940306548 -0.278331125828 0.154160905537 -0.740958717404 -0.457476733356 -0.863730938756 0.000726615135194 0.170947891466 -0.189434319521 0.0379931098217
-0.0474431187016 -0.0420033045277 -0.0715226619518 -0.115940560052 -0.666709957622 -0.107538447076 -0.168175606161 -0.580637364263 -0.102719764121 -0.0568896740338 -0.149036743677 0.119119846403 0.214555660337 0.198293833264 -0.424262895166 -0.0839419129598 0.104415335032 0.132822387973 -0.0533023417548 0.191047415459 -0.148792109657 -0.674822659163 -0.0528125193931 -0.0921550064225 -0.813397669104 -0.661530585812 -0.228907937649 -0.115864982084 -0.0122565192021 0.205849750221 0.0434529923456
-0.578676565487 0.256082773396 -0.0929886476795 -0.16250591905 0.343703670829 0.629781797879 -0.0681808778397 -0.687704005712 -0.576782706852 0.0216472526947 0.108166157165 0.865450311851 0.190829930379 -0.547236571656 0.177519283541 -0.0961502822034 0.19694263812 0.238971162263 0.0514132760994 -0.918690852386 0.140544606799 -0.424675143886 0.981873914839 -0.487253231222 -1.03307990775 -0.217452373506 0.908758183751 -0.159994169759 0.133197180798 0.744525949672 0.0445291075665
-0.0278989964865 -0.0955073420967 -0.329247168741 -0.0677994245662 -0.217550491917 -0.0266629114338 0.0273240610286 -0.157411479592 -0.16644194617 -0.0618514044221 -0.316237071773 -0.212296595408 0.180911126584 -0.245032570115 -0.428529928697 -0.0631950506753 -0.0625389971951 -0.193930900539 -0.324284968355 0.892172771046 -0.219536794761 -0.551062198382 -0.41171029035 0.0550400232933 -0.343835862344 0.0372221445674 -0.586828739711 -0.0610882619172 0.258969642008 -0.130475642678 0.025541071928
-0.294377824022 -0.387692343115 -0.246294030167 -0.243865617911 0.154761961651 0.0431274429002 -0.103185804912 -0.532634504771 -0.0140922158633 0.0365447500568 0.0603793354562 -0.0216540011892 -0.10529852741 -0.31486435123 -0.169824677387 -0.0561586318456 -0.0722897681388 -0.18076892475 -0.640568656246 0.274063105918 -0.269409739282 -1.00925213943 -0.226127389661 -0.107925152935 -0.655136911894 -0.449545022693 -0.189008081037 -0.118292685977 0.0492936861376 -0.0757840186191 -0.0406560047485
-0.544221201891 0.0401514539024 -0.37365221583 0.23599190645 0.466804803406 0.045923154876 -0.0879901601792 -0.396323532031 -0.0767235658987 -0.133573072176 0.177190161038 -0.0114712211111 -0.026665690451 -0.732667870493 -0.426692257118 -0.0555785449596 -0.109910148697 0.102177290011 -0.457927191697 0.0290786589084 -0.0191716653737 -0.18021462565 0.351132483518 -0.804434448219 -0.924609766844 -0.191804115918 -0.0919187625692 -0.0967908009482 0.564289596892 0.0148921159983 0.0880742125526
0.206151722407 0.337262777266 -0.333543249321 -0.137794192446 -0.368713294368 -0.0465626423512 -0.0977369127726 0.0836485173587 0.158808121303 -0.0327753356331 -0.385342356744 -0.0222780422201 0.240181473967 -0.136565120505 -0.785038695179 -0.0779128175726 -0.374280049335 0.332434878035 -0.39011184012 0.57239978932 -0.0530302383797 -0.357428415459 0.157729158859 0.23742544027 0.194707500044 0.0240529406068 -0.328138223673 -0.110380900001 -0.0465927521223 -0.413649898867 -0.0363882430667
-0.0685911475971 0.139699953453 -0.159840917189 -0.00176543060545 -0.15820683061 -0.321598181895 -0.0359622609883 -0.462196436103 -0.0304452214281 -0.030959000341 -0.199474111472 -0.319696727934 0.27900634975 -0.212119704686 -0.654203145808 -0.0346257326854 -0.219233069339 0.244986873284 -0.452084173814 -0.557447481917 -0.0882234451795 -0.507247138267 -0.0165290597045 -0.140851192484 -0.236087785488 -0.439804232943 -0.0427348886634 -0.0683718290053 -0.010472313821 -0.570118054152 -0.0520730417156
-0.338496531331 0.302568485606 -0.327436970357 0.146970618298 0.0297974206946 -0.711770211776 -0.172794350747 -0.270029703779 0.00841526435728 -0.193276431275 -0.108319245858 -0.712465591533 0.321776707918 -0.127856434901 -1.00875383842 0.0181416986643 -0.359958679349 0.36062750227 -0.315081303571 -0.676168065358 0.067531838281 -0.147611430668 0.174958356927 -0.70255881652 -0.758230706318 -0.0674949049414 -0.500422078369 -0.102413920265 0.413934131386 -0.51228079688 0.0842328736975
0.151182124506 0.138878229131 -0.546408577439 -0.325270987839 -0.266289475765 0.204789880412 -0.0376392040747 0.509611462951 -0.1907961709 -0.15281909214 -0.366413564248 0.154459615872 -0.0013631100173 -0.136772779924 -0.796348354354 0.0182753809502 -0.358272483753 -0.382444725968 -0.140401290745 0.829106083914 0.005294941951 -0.0519383776846 0.505912407029 0.759681518572 0.366171067523 -0.197656518835 -0.124403905843 -0.11679961609 -0.567979543514 -0.347036948374 0.0312808444853
-0.0346040245535 0.0358923498657 -0.333638888961 -0.132521421336 -0.206248586981 -0.143147462131 -0.17027585377 0.259667127574 -0.231118020572 -0.196147495127 -0.126349509736 -0.251531098456 0.259727024781 -0.238175037636 -0.536462498251 -0.132960124802 -0.468181810999 -0.461109696693 -0.284520308014 -0.173852299397 -0.297934830702 -0.282972089533 0.345272974155 0.568752129337 -0.0654365923932 -0.659351875575 0.310103859103 0.00308446164468 -0.490678643829 -0.463537744629 -0.0698567342665
-0.34498214171 0.031536614096 -0.471102784895 -0.281635220697 -0.0955192961132 -0.414269040589 -0.0400952636783 0.0605797598876 -0.433427384586 -0.164914387815 -0.0020600572323 -0.315527595757 0.137164538447 -0.0503000122302 -0.606739308341 -0.0198340619861 -0.419749334854 -0.250520266931 -0.166018161112 0.0835214861334 -0.157706697755 -0.0653520604193 0.310515570258 0.00203154750163 -0.525177621092 -0.281161285802 0.212864521179 -0.179830858977 -0.166451472408 -0.427730159458 -0.0771929630133
-0.259074764527 -0.232383162078 -0.387111534729 -0.23950527192 0.172989758462 0.121284169709 -0.0474521124901 0.214938622802 -0.197916395789 0.0258916850284 -0.135131759135 -0.289911952199 0.181813226434 0.00148385311892 -0.0980519523629 -0.133307885629 -0.0419826578475 0.0477971147912 -0.111422310008 -0.511421289362 0.171316305772 -0.228745605857 -0.132341418172 0.478407053354 0.170990779575 -0.0328144951724 -0.0771544238141 0.0222401732923 -0.67293679019 -0.0556566782802 0.0182795616681
-0.434135576426 -0.0284416468332 -0.379166931129 0.0417368126428 0.177573231627 -0.0641309044721 0.000606534026119 -0.0198403771098 -0.302806596509 -0.0470744913883 0.094012619945 -0.402033764273 0.266412485536 -0.182497215705 -0.0710920014894 -0.157471943727 -0.146928617322 -0.0840909361439 -0.191108753454 -0.84985447902 0.00973057516107 -0.0891136749452 -0.112987722145 0.414813102016 -0.0555059927427 -0.476348149209 -0.0342352377129 -0.0978102428146 -0.234985117535 -0.301011719778 0.00359327101176
-0.391831887461 0.341952605762 -0.409749311873 0.209644855555 -0.138013370774 -0.390160477166 -0.125090090981 0.0201333144578 0.0972761093291 -0.140967474914 0.036034484033 -0.719612577835 0.0529049876965 0.238170883404 -0.725029960501 -0.0232210459767 -0.411778444645 0.028292666503 0.37201225789 -0.164558781819 0.1404818939 -0.00566951093586 -0.153272728671 -0.173505337946 -0.215857732807 0.0637562690101 0.0531200275038 -0.0651199484225 -0.000429691316429 -0.0859771705168 -0.0237434719403
-0.518942217649 -0.374421679508 -0.313917231934 0.0290780716603 0.681058585759 0.153994291427 -0.133709426216 0.10776544826 -0.813103000766 -0.0842468586681 0.0721693679756 0.113333749478 -0.0395252013628 -1.20308279214 0.24282106404 0.00892308043012 0.0318522031347 -0.0704009393032 -0.505514698909 -0.351323144507 0.222613175805 -0.186873008924 -0.0597175968367 0.393851390785 0.708237387387 -0.167075022499 0.486931455276 -0.0602773961444 -0.548269915697 0.0240340809408 0.0984763703944
-0.0922686581012 0.0893293613654 -0.182036888757 0.105851496825 0.246208164392 -0.01953262725 -0.11799345618 0.0568171855095 -0.409508189201 -0.18467206226 0.190892568703 -0.190111767645 0.00355882227878 -0.843508217978 0.0389442568992 -0.0855454315286 -0.0257343167107 -0.168280451225 -0.0978409013706 -0.0865322259101 0.0875864680542 -0.21897062251 -0.196303709601 0.382311363782 0.109983364972 -0.0695705260018 0.157924196476 -0.0347671965961 -0.258315394323 -0.331996239143 -0.0367939593235
0.561949530687 1.00696855033 -0.544165130971 0.68216543479 -0.381618090038 -0.492760636433 -0.0731586982348 0.376493383206 0.957658588258 -0.021830184883 -0.0869126591262 -0.593833346271 0.09026457672 0.173183929544 -0.740299950906 0.0412109458637 -0.326510643911 -0.0544254169742 0.935798175933 1.22831263643 0.111984305863 0.217946407309 0.145943113043 -0.450381280454 -0.25983216329 0.436452639422 0.123655691431 0.0812579190838 0.304771138877 -0.19920727976 0.0583517319712
-1.04543913978 -1.24925418274 -0.546696082835 0.686210171138 1.13955389165 0.0199234805187 -0.221064121898 -0.452638071298 -2.03847502845 -0.00645726483568 0.374354379494 0.347569087961 0.375195828725 -2.38556671392 1.51351718015 -0.0957221889846 -0.263413778454 0.501984647181 -1.75013464077 -1.0169091528 -0.350450094206 0.399917825579 0.60911934247 0.572612578489 0.251539040454 -1.00761999788 0.656126403844 -0.0937173003616 -0.00425099348492 0.514804488287 0.0681241631009
0.321691250912 0.0428427068784 -0.740712670925 0.258895365364 -0.00166172220797 -0.677660089569 0.0089344126194 0.218388903521 0.105397262318 -0.208058493706 0.112444130871 -0.462436641588 0.321618778112 -0.654472577687 0.775473662322 -0.131117045829 -0.540497454699 0.137810343934 0.0539925455016 0.361947641048 -0.603148686536 0.314926964528 0.00627595924658 0.272811038334 -0.746331072405 -0.0867872348349 -0.541738797527 -0.0799684915094 0.0719090319309 -0.841742354999 0.0158267550968
2.24466453266 1.8461372016 -0.936331382507 0.271012995611 -1.39456181111 -1.25609824502 0.0641395423331 1.36276713822 3.37745289052 -0.233102653359 -0.622556063254 -1.14186790643 0.384508280551 1.91707844833 -0.499871949006 0.019962771492 -0.916566871818 0.527454503632 2.75424470475 3.0996189417 -0.7614438811 0.809192023839 0.0917620935543 -0.828739421739 -1.44997561799 1.22319798283 -1.6359292842 0.0889763443581 0.878510390125 -1.68843301445 0.0939352809222
0.626100750352 0.883087535228 -0.667927200727 0.126924655738 -1.96933188619 -0.794632241322 0.00257777327614 -0.361205174819 0.295391536437 -0.0942219169752 -0.395608014994 -0.501357956467 0.311985882612 1.43849514813 -0.547387275024 -0.139509083361 -0.874341081531 0.196578368092 0.865037353394 0.110031674015 0.00154853915758 0.454670128313 -1.12338945009 0.769175524839 0.0982393747244 0.514059432764 -2.0001763218 -0.0304370505291 -0.235258805597 -1.02186895058 -0.0354948505747
0.216663885469 0.0531445040526 -0.696983731014 0.148531989295 -0.896664386742 0.0975903220851 -0.21501144035 -0.8039087859 -1.09250776069 -0.0235854680214 -0.17803406379 0.955761895544 -0.0663331914382 -0.0645751190738 1.35872602683 -0.0887844604887 -0.835250328033 -0.139819376391 -0.148374957679 -1.03370902535 -0.284040597058 0.13254446227 -0.0234861721534 0.236026594598 -0.575660600524 -0.706330026074 0.0799232339009 -0.0992733046068 -0.339661137248 -0.0518274933749 -0.0755741747811
-0.551427507623 -0.562215522195 -1.0756146823 -0.466489026443 1.161897956 2.26806157996 -0.0710880045072 -0.859128431969 -2.00450160044 0.051200693063 -0.00938724351879 2.95220696392 -0.592820534454 -1.42042975282 3.53999493398 -0.0964420398448 -1.16034951136 -0.162073911436 -0.77719049555 -1.95645436404 -0.34724131375 -0.187654357029 2.03072294526 -0.881650893408 -1.11977188079 -1.15201080924 3.20777051972 -0.237497673072 -0.478578658397 1.69486130061 0.0368601680273
0.637186727387 0.203013716495 -0.638126236611 0.0285116543417 -1.11167266696 -0.128225623813 -0.0404000018507 -0.666985782212 0.460592065197 -0.0619896080923 -0.345772303174 -0.09033219701 0.167253718878 0.724745790504 -0.877240172407 -0.0955727863484 -0.562299690038 0.100616729704 0.34909699547 -0.0926284022882 0.105540591952 -0.248326598441 -0.270615750822 0.191651184063 0.258263341683 0.150161125053 -0.987462989198 -0.191798976763 0.0151453234476 0.234734107345 0.0974884339081
0.240278707452 -0.258085919772 -0.425088728504 -0.0719460485905 -0.662840645648 -0.237618271013 -0.0879675403545 -0.734806236391 -0.0286980300535 0.0142677510091 -0.0971844658821 0.318032689636 -0.173449277639 0.268358156035 -0.296489050452 -0.190732342291 -0.467421619835 -0.178529643402 0.122940957549 -0.401069724549 -0.0842256369236 -0.711114246991 -0.190361040314 -0.141693723636 -0.234471325524 -0.181962674214 -0.571342148863 -0.0369164533744 -0.486412918111 -0.0256125766642 0.0652382163863
-0.18284274305 -0.216757661674 -0.47163210998 -0.369359987973 0.0686599584455 0.503008065177 -0.13447146094 -0.586506167091 -0.468882740805 -0.026272723959 -0.0439005297805 1.02718659502 -0.33762788257 -0.519710354605 0.089962397646 -0.164004239734 -0.556611483228 -0.227900514261 -0.00721904956633 -1.26644426691 0.346051897051 -0.550237675113 0.53036956947 -0.0833791781763 -0.184840533796 0.491732507963 0.411768425858 -0.154673014639 -0.619457500443 0.284309763729 0.0925315645717
-0.452822802368 -0.118348910351 -0.676249679478 0.253344911209 -0.178693105716 -0.0278307894466 -0.00671050890912 -0.374952616138 -0.123224451488 0.0174633318611 -0.345503012348 -0.238781739392 0.22952359058 0.516214683293 -0.737746174106 -0.0818023005254 -0.44640509799 0.29820703802 -0.336473628474 0.577222540258 0.0259229782754 -0.0676370358573 0.01094625146 0.0596902212192 0.329427227587 -0.405867907062 -0.34750165618 -0.172276276643 0.00233860068572 0.544956338403 -0.0551125068806
-0.675548013689 -0.47701790783 -0.694320041903 0.0897522131822 0.323805284548 -0.154744069193 -0.106598028658 -0.594293091551 -0.162827220224 0.0636761799952 -0.0713278395483 -0.324253223857 0.158227509899 0.336511030517 -0.642089864811 -0.16629084233 -0.616438672803 -0.059493061737 -0.485598873899 0.0673934926452 -0.230643726811 -0.334263667793 -0.0612242954525 -0.0143093557654 0.0227373488903 -0.325062071497 -0.259752798013 -0.104907346616 -0.0291551017543 0.0803818151142 -0.0667612242777
-0.685055676785 -0.053147776328 -0.756745245525 -0.0839865017661 0.524900671284 -0.0669968214984 -0.146153181757 -0.435282350627 -0.013509207474 0.0141030909038 0.0702757768482 -0.0487967341283 0.025943510279 -0.0593786649564 -0.944192768545 -0.0131550472648 -0.682559634381 -0.274298581995 -0.264281933271 -0.334654174059 0.0146167306725 -0.207084924222 0.0292253231762 -0.492291757833 -0.241012640012 0.109211789663 -0.334983915837 -0.117488326888 -0.150364483832 -0.166738859027 0.052715176893
-0.302615077989 -0.177723870731 -0.618735760628 0.60252103764 -0.0166317691694 0.110467964176 -0.140478469709 -0.169271787312 -0.0800849373707 -0.0237988818389 -0.376411476414 0.135618510229 0.379278966038 0.16616412041 -0.540537560263 -0.148959657073 -0.811813237608 0.404893894214 -0.219622665953 0.564317552835 0.0158602749426 0.193178881231 0.264885049637 0.0322748415163 0.256268811929 -0.232923318595 -0.0907217616466 -0.0569825906678 -0.277853707748 0.341640630436 0.00382352814553
-0.647752064818 -0.471141573408 -0.504024263029 0.607740624235 0.040682788787 -0.340545531273 -0.08483457469 -0.630754194288 -0.279170362997 -0.168028900279 -0.129920856316 -0.0873718353408 0.318016619297 -0.0143633172826 -0.50164133295 -0.00715537906959 -0.686009509091 -0.0519907762217 -0.354587790651 -0.589754103735 -0.260613210606 -0.230850039856 -0.135998803514 0.00752529282162 -0.315588087615 -0.723766010238 0.044243344906 -0.216589757556 -0.132618497417 -0.203417502359 0.0790929324147
-0.957481136875 -0.0662450527395 -0.716548886501 0.479357726381 0.220253580095 -0.307640893243 -0.0685943063425 -0.54064089518 -0.456680472628 -0.140695875242 0.172542080268 -0.332948700484 0.0846172037547 -0.0361446629787 -0.989881518835 -0.194633627522 -1.03792981382 0.0286933385788 -0.496643444352 -0.861390688603 -0.263929081261 -0.152867156684 0.0232262501341 -0.419100575227 -0.520904229412 -0.827209194742 -0.137316920193 -0.155788672929 -0.00689033361648 -0.447616658115 -0.00521399002117
0.0516381805657 -0.0412539321522 -0.384013597717 0.0878841620497 -0.0352656206154 0.124190913759 -0.0325892805266 0.653223176253 -0.532675500061 -0.159702776219 -0.17968016234 -0.0362080329466 0.0388522854238 -0.0734103384834 -0.949065705953 -0.0282355743149 -0.504181561888 0.0611978677698 0.127292740526 0.730314441999 -0.0139580515317 0.120449325457 0.4673446918 0.30541782499 0.316547365353 0.00438640885573 -0.188371157781 -0.0327361406783 -0.345769128734 -0.210996558937 -0.0838850558889
-0.0409211671879 -0.217057094211 -0.616279039256 0.356554270352 -0.0552139697354 -0.36823725109 -0.0658876748082 0.345306516179 -0.235874804229 -0.115033737329 0.0142819751974 -0.438304954086 0.157829234202 0.303423918734 -0.595148094933 -0.0764701473951 -0.683655378972 -0.300628243939 0.209389198774 -0.0998822609617 -0.351687770617 -0.306585178019 0.0274507106637 0.0617629134613 -0.538326558494 -0.538972800526 -0.0976234176671 -0.122191628038 -0.148068187773 -0.645756972957 -0.066801035092
-0.249450830108 -0.160381471924 -0.731617176143 -0.0106319704488 -0.358429827534 -0.707077725803 -0.0191101849338 0.0545694595638 -0.142191445745 -0.09101998038 0.192101183672 -0.588029768189 -0.0570056710478 0.593829716941 -1.00926908087 -0.167661431416 -0.897448895135 -0.50666234777 0.208332598689 -0.233960503301 -0.314727753202 -0.284605157236 -0.367229417436 -0.0586430075019 -0.691782311238 -0.619369128591 -0.389545460075 -0.0916566068351 -0.270182131362 -0.838789376816 -0.0911514348504
-0.250311497465 -0.19216308621 -0.373692137537 0.0632809924167 0.54576388013 0.391968655917 -0.133090277379 0.723608604643 -0.1126894299 -0.108989905137 -0.00233946852368 -0.0541028457203 0.000262145724549 -0.0559881919484 0.000457749177292 0.00518601767482 -0.284604045563 -0.0992065175452 0.259039395497 -0.0371387590083 0.226175961475 -0.345121420996 -0.294754642105 0.0683148130071 0.514170936103 0.0284202140143 0.0930343554662 0.00536006377744 -0.4593907474 -0.0524529028049 -0.0372828210494
0.0332087508158 -0.236661362678 -0.462662203703 0.0131655254297 0.342089860341 0.0914548412511 0.000906359679545 0.30198853299 0.0292639039577 -0.155895552909 -0.130468436793 -0.233095074727 -0.0230482952542 0.193427243878 0.0453742406941 0.00718603552066 -0.434478263527 -0.412861019064 0.121050624863 -0.545901118052 -0.061610561683 -0.721467574155 -0.503728870759 0.0507140172556 -0.321165935329 -0.290434216344 -0.136586052082 -0.0210557678865 -0.183541192223 -0.533711781406 -0.0594168810866
-0.2770895671 -0.281374898842 -0.378052484563 -0.247185080019 -0.0747049008389 -0.192170578039 -0.0698208943834 0.0841861365044 0.432522064369 -0.0562127368167 -0.0753458994595 -0.617323632322 -0.389913565686 0.423098083678 -0.564267631451 -0.150180444178 -0.456354640044 -0.564456796338 0.297250911873 -0.398645230705 0.207490600799 -0.738961494133 -0.712944629103 0.251953976112 -0.125087173026 0.0788150595917 -0.193961427979 -0.00698000372613 -0.259754887672 -0.0874922102803 0.0304605768804
-0.476658532725 -0.327064752804 -0.628031585705 0.161520669491 1.04208865367 0.231304733431 -0.187288927334 -0.0888656152173 -0.878878487601 -0.0325709394091 0.107730001092 0.374729470253 -0.187512863925 -1.18015713976 0.511484572274 -0.0301717293441 -0.654012409142 -0.0182972108877 -0.617518796561 -0.0149188201106 0.214456173622 0.119680758861 0.534453231835 0.273546630545 0.496598106745 -0.450871068525 0.577126177568 -0.0970534139307 -0.241785994162 0.242499015872 -0.0420791858644
0.0513028555717 0.0605273984894 -0.616549858454 0.098178971879 0.481203209145 0.040165170831 -0.150912281436 0.00794440919499 -0.512123233825 -0.117639491891 0.129649247081 -0.0124332291406 -0.206271125862 -0.703393180625 0.179694041386 -0.14481869538 -0.68771923478 -0.394996640863 -0.173856932864 0.332542770602 -0.0166840419748 -0.261388167772 0.177505406843 0.482519969953 -0.107678462749 -0.510071891749 0.0941062341745 -0.135621680435 0.136094562384 -0.53152815776 -0.0611955355735
0.50490223113 0.516737741731 -0.63789172069 0.32338924304 -0.213123876824 -0.397553972185 0.0897152104253 0.139191812545 0.672035733944 -0.0994681062283 -0.0184939627551 -0.216725577888 -0.249906578578 0.213993084741 -0.353554117315 0.0512842369122 -0.799406340586 -0.47305227649 0.679644349524 1.3214361666 0.338475222983 0.220995611806 0.287504352901 0.0651072441976 -0.243376732513 -0.022104877804 0.00205009966646 -0.100909974532 0.195216732661 -0.268067408808 -0.0245043921088
-0.70201103914 -1.03221032067 -0.650887275512 0.44647675479 0.782061772274 -0.470260308435 -0.137260213191 -0.483042922352 -1.53448992581 0.00656134558767 0.300422520127 0.117344338056 -0.194780913184 -2.15575157297 1.08923925303 -0.159261187355 -0.62084828461 -0.268513822454 -1.4813655308 -0.527976474909 0.0941273175576 0.0555167239303 0.620636987228 0.709738086149 0.896219255943 -0.708923201754 0.519578064631 -0.133896043478 -0.226293844262 0.651494384748 0.073030619095
0.475716683629 -0.0813382626355 -0.796480996613 0.165628774017 -0.241649968964 -1.15447186251 -0.0704279637031 0.0769392509129 0.161954357186 -0.087041602236 0.0248596681637 -0.735668757232 -0.161862053362 -0.517482773167 0.289115422695 0.0205712715643 -0.825672610337 -0.484027328883 0.165053502034 0.710272228606 -0.0747717884914 0.0214713009648 -0.254865097879 0.65926736709 0.187600063127 -0.0660359217807 -0.632825732854 -0.0360480084849 -0.0476628346746 -0.576194922566 -0.0482048716944
2.27296908678 1.31044963605 -1.07145532568 -0.359100091479 -1.48777731412 -1.61653710943 0.0201276404403 1.13743603244 3.22499174052 -0.207269776626 -0.710911789225 -1.26230996941 -0.458323139668 1.48410778755 -0.758058097283 0.0500172044112 -1.28832651319 -0.540681055832 2.56118267055 3.3305561046 0.17958809042 0.195378387149 -0.355591698268 -0.0974471395068 -0.281253238016 1.37109991613 -1.31773400181 0.189601132274 0.133324649251 -1.43102693844 -0.0125672559817
0.723889335805 0.495897047369 -0.407582645096 0.620339184489 -1.59522282224 -0.88241980668 -0.130646774102 -0.103215388807 0.258533057932 -0.126335992562 -0.19321128434 -0.781656227854 0.0418418605335 1.23553052436 -0.85151573705 -0.0792870208722 -0.708009261476 -0.29749788327 0.502488651429 -0.0920953263538 -0.201025622629 0.777122547135 -0.983732321301 0.462709981822 0.222391656938 1.00774457565 -1.9033000071 0.000410215904388 -0.318833474313 -1.42082249406 -0.040698878902
0.0594941866531 -0.307898051931 -0.509153622743 0.276407443864 -0.503060520705 0.0940053044843 -0.14070066392 -0.792178642732 -1.1411958208 0.0249343944944 -0.156409669416 0.397441094258 -0.326708753785 -0.19456181698 0.635805668147 -0.0570292967833 -0.752229261427 -0.807038325575 -0.474485011565 -0.918481515245 -0.0739932580019 -0.0344431519461 -0.198205905101 0.368251791073 0.226749342284 -0.287207147398 0.16934711636 -0.18348947776 -0.345659359948 0.0920025312341 0.0590218191359
-0.568988519802 -0.95035632843 -0.888455117881 -0.621543182546 1.2590385425 1.94266183183 -0.161339375209 -0.769420368859 -2.17803719626 0.189397970693 -0.149479993197 2.3478804645 -0.735200462441 -1.4061658325 3.031256301 0.00752848905736 -1.08957211645 -0.942966675805 -0.999078045908 -1.73496950505 0.00917655965966 -0.274483047581 1.49980448051 -0.401770337863 0.109195534665 -0.76390811371 3.29119305215 -0.201473223246 -0.512094366867 2.19104264644 0.00720975799976
0.863302117097 -0.0150078242941 -0.643084388471 0.199147908832 -1.12692636514 -0.319662996055 -0.13393327303 -0.248464954251 0.66751832357 -0.0809802386275 -0.31325076134 -0.0784773397864 0.064171077742 0.5777381825 -0.940350573836 -0.153019256393 -0.595721092291 -0.0109127219614 0.327234023941 0.309919085034 -0.00319091960434 0.408966219795 -0.425791084892 -0.124596002307 0.242907629579 0.649224628449 -0.913469833555 -0.058314944748 -0.2669136171 -0.207468139147 -0.0207399342296
0.550640287678 -0.557151164384 -0.666905582882 -0.0286879964672 -0.70151000448 -0.287714264078 -0.00106072491997 -0.571917952492 0.225965917903 0.0270361078214 -0.0577137131317 0.298783188927 -0.0954398284699 0.135259686107 -0.23850306988 -0.0215659999048 -0.572025235767 -0.736115385687 -0.0154244854328 -0.0630630557605 -0.133036834431 -0.00470843569637 -0.535619674361 0.0228895034451 0.152190728186 0.262612829911 -0.399223472017 -0.135148683948 -0.294007888336 0.0569034356368 0.0873761080543
0.0361593379965 -0.3093802952 -0.584116795478 -0.456923263464 0.0589192253321 0.401990433241 -0.145345420416 -0.338486131505 -0.137167975784 0.0303034039353 0.0201234652026 1.07350655155 -0.45206321698 -0.761064888488 0.321066233708 -0.117606031701 -0.770945888893 -0.994620528142 0.105944526334 -0.686094548756 0.241754496974 -0.178511352689 0.286131405117 0.0517504768606 0.0713018030524 0.460943189405 0.561118520984 -0.0414716613875 -0.311553447432 0.606384675906 -0.079638608465
-0.115827800412 -0.39856168317 -0.842668053895 0.293075472245 -0.403311039493 0.199538838873 -0.101178972073 -0.206042807286 0.0109010467993 -0.0356740565336 -0.178197080698 0.142230188749 0.322461351396 0.13712430813 -0.251829476548 -0.0601272341981 -0.422931246765 0.0964496081714 -0.220162841439 0.266099459826 -0.312125097107 0.36429121613 -0.0201068207322 -0.271326923654 -0.131639572781 -0.00584851959118 0.0119238597522 -0.110949870928 -0.232864259494 0.0637559755032 0.00758276098908
-0.179847326049 -0.643634670854 -0.725700800372 -0.162414378374 -0.0589577422576 -0.0408175344193 -0.0652741910329 -0.266200707542 0.0033954983261 -0.000406570198532 -0.0328730624264 -0.00261765532235 0.00474638560618 -0.197406513861 -0.253213979405 -0.183726914587 -0.756493797096 -0.755037052359 -0.348487637279 -0.19374728105 -0.236230610842 -0.243943647044 -0.208644573786 -0.333731165669 -0.471916486096 -0.073601115343 -0.0479124691639 -0.204518336696 -0.222892453115 -0.196139712721 -0.042671114298
-0.583113619102 -0.217794653917 -1.00530814107 -0.109589049443 0.411540228253 0.165005037825 -0.159155567718 -0.152642104146 -0.119321129493 -0.0577169319621 0.171945220234 0.217416329998 -0.162778176653 -0.56932315956 -0.459941913308 -0.0524021010721 -1.02624730898 -0.861758445332 -0.246867186373 -0.863299898693 -0.251078555342 -0.0620912684084 0.333442405025 -0.474169972802 -0.621202534583 -0.243626065026 0.186895603554 -0.029112668057 0.243133872156 -0.262709170703 -0.0745109156822
-0.749149631825 -0.356884334866 -0.48598170177 0.15083314561 -0.158757771492 0.506294981981 0.00896185539063 -0.102113128593 0.000991124556144 -0.129345094804 -0.116526810381 0.511186319091 0.183962553767 -0.041984993981 -0.494369394153 -0.113840628563 -0.373509711483 0.0341408081597 -0.117562430873 0.321831805424 0.136225273256 0.36393055141 0.0181535104082 -0.255746864114 0.272017620717 0.119524026546 -0.110982682247 -0.0328815957975 -0.278038669438 0.1728900154 -0.0382419113387
-0.698266401753 -0.56719537623 -0.328154187917 -0.355311418544 0.22453605949 0.0864825198875 -0.0374713409016 -0.539166882233 0.149177084748 -0.145446597179 -0.0436313975792 0.101179659939 -0.164463418733 0.0249705259961 -0.536941358071 -0.0481208358241 -0.527144577061 -0.630914363224 -0.310115098084 -0.286013492158 0.0365734888221 -0.341117704967 -0.311679557665 0.110179679886 -0.18785783766 -0.372896475588 0.190605095801 -0.0499288385035 -0.440547809386 -0.22996598391 -0.0807344598975
-1.05034051545 -0.652771077834 -0.820543072794 -0.569893893352 0.362102745342 0.177008675857 -0.18952231852 -0.500694796274 -0.223351639197 -0.0893242080796 0.190886509163 0.123722942763 -0.287209111044 -0.280690567378 -0.625614206009 -0.015573014462 -0.85067239324 -0.848055019344 -0.386080142148 -0.880917203983 -0.129422678658 -0.531219690508 -0.263541389742 0.126023671146 -0.24982000641 -0.801872852755 0.141151446519 -0.172881590373 -0.450684810848 -0.324295526799 0.0296189190516
-0.661920785773 -0.0743459483514 -0.179293898721 0.24961380438 0.259259968845 0.176608904191 -0.16763321593 0.428106670451 -0.136757022399 -0.0433993129886 -0.0610481316553 0.24043328157 -0.0796737920096 0.286036189408 -0.316747312241 0.00121411411057 -0.292242677237 -0.423667273047 0.0904845491618 0.278003369268 0.226778818743 0.37357604428 0.0149682634688 -0.0724933527341 0.948465237518 0.297260589818 -0.0998278777926 -0.0107294701441 -0.35235319686 -0.12584393052 -0.0640316734059
-0.53598761636 -0.36533339058 -0.0771763459795 0.0839986975536 0.193250767949 -0.421370340987 -0.065224538061 -0.0501277519277 0.0588666780564 -0.0910501591643 -0.127116290935 -0.511961503064 -0.0204722510925 0.326424419674 -0.34208369261 -0.0670086237733 -0.359905328998 -0.732157175045 0.100938459529 -0.197495705422 0.106828765115 -0.151568527086 -0.621918590377 0.394447074058 0.446685205228 -0.300323429078 -0.13621992562 -0.0692336080256 -0.16649788277 -0.580911356336 0.0506098091336
-0.996638023006 -0.345741205321 -0.345058334142 -0.43232954926 0.173474541047 -0.547122669414 -0.16933823858 -0.259867513761 -0.183749053152 -0.144781794322 0.134259243395 -0.733896477794 -0.290151756174 0.596996218245 -0.88076171669 -0.0523955437184 -0.486370858404 -0.839007676673 -0.184216980676 -0.548182132763 0.416173810926 -0.508911465182 -0.794977350761 0.763080563211 0.481918445735 -0.492997385724 -0.42964150794 -0.187781392684 -0.432604292313 -0.573156243344 -0.0459565969181
-0.671708073651 0.0818305842819 -0.111944613051 -0.00744475759942 1.12698146966 0.489008928946 -0.10413750622 0.60045973208 -0.382271884954 -0.0519382229515 -0.00198546708555 0.182826533959 0.0426195503264 -0.0444734343593 -0.0847733310265 -0.0729103961691 -0.245869310377 0.133502130673 -0.0710023270994 -0.481403401701 0.322340888493 0.056215224102 -0.262313576706 -0.514343880266 0.642741464892 0.59030699634 -0.121652889477 -0.125798040818 0.13237516983 -0.27594970336 0.046044899558
-0.349155836356 0.0462460940459 -0.167850571562 0.152103908737 0.7021890926 -0.12854532054 -0.0998049496034 0.328006908904 -0.102386864054 -0.129436822272 0.00297078064372 -0.246030954227 0.000572553320888 0.364629312971 -0.197589691727 -0.0265963512505 -0.293510425725 -0.331592238846 -0.094564423005 -0.464053004485 0.273883014162 -0.209071326146 -0.65291052306 -0.561820786474 0.175830359845 0.152132027117 -0.365707401435 -0.0622743781092 0.457769103031 -0.668608913853 0.0919469983421
-0.463577424109 0.0577024256438 -0.483755981236 -0.073594275877 0.414131533089 -0.168524509973 0.0391188086448 0.53813741405 0.0348048540486 -0.103901026069 0.020063305291 -0.547347524511 -0.0320157904637 0.581449026265 -0.373728917929 -0.0172981832862 -0.581590673624 -0.368328502897 -0.0296398117197 -0.38427976449 0.51954458924 -0.34714650078 -0.498835406332 -0.389829158402 0.34225706713 0.0249653558786 -0.318066930697 -0.137566098693 0.319708252933 -0.124567059379 0.0184881290382
-0.513706421019 -0.120028631454 -0.599443588005 0.113681999801 1.06840892204 -0.0234744402171 -0.175713136494 0.174760141003 -1.02544400383 -0.101874099137 0.129929604107 0.0356249622263 -0.0167660428951 -0.792714779342 0.178608888888 -0.153020567956 -0.353510088013 0.38251406012 -0.613803647682 -0.0414815720631 0.128536960503 0.220774615909 -0.0239268537639 -0.523117149989 0.219208544795 0.275110465571 0.296938614927 0.0112439102507 0.27422293394 0.281463408777 0.0234063519367
0.205164803025 -0.118160709427 -0.401718087567 -0.0754158155543 0.478955134588 -0.408883630391 -0.0816254336884 0.0454648187991 -0.678042653391 -0.0925406385009 0.105213563119 -0.247482776537 -0.136689056706 -0.385503799114 -0.0611850850172 -0.0994246231573 -0.607914276753 -0.168248194613 -0.287107090481 0.408825611442 0.0409945454232 -0.187378975893 -0.258849269325 -0.24524540277 -0.355853233694 0.20831513741 0.0608164616983 0.0318723360524 0.51451408828 -0.19890835679 -0.0623902470313
0.366601638749 0.315332639395 -0.66849159932 0.0576780048241 -0.217314872724 -0.615490020767 0.0331124014334 0.458204708304 0.474021017048 -0.0633956192632 -0.0634872517631 -0.608060946937 -0.207033817125 0.0909248619404 -0.614751170473 0.0164628460202 -0.732863035622 -0.0139358653778 0.312592451225 1.17372602892 0.176083543022 0.0890540939059 -0.123030921921 -0.202836229004 -0.320756083658 0.287806424966 -0.306678679971 -0.00282236617733 0.662842895401 -0.157447830803 0.0740805332293
-0.532658281993 -0.886893258475 -0.523949593852 0.571376961365 0.58173775244 -0.412540714776 -0.133643838612 -0.607087213524 -1.397105382 -0.140878350973 0.457577743524 0.0183204279154 -0.235338573911 -2.38774204123 1.07570733262 -0.152494086244 -0.605799882296 -0.0628174987371 -1.5939086863 -0.232114470511 0.173209408454 0.458279288221 0.516692579261 -0.221465927982 0.511508755151 -0.225558368257 0.882306172233 -0.0585603742452 -0.273460652474 0.81209310093 0.0898619340625
0.863464425692 -0.171602803147 -0.611664581543 -0.0342430934811 -0.621979124066 -1.13769819733 0.00694187609172 -0.0570038558325 0.455192113349 -0.0794604870364 -0.0103481044355 -0.752952638607 -0.314401241149 -0.885758950711 0.430733342867 -0.101706072177 -0.559786559386 -0.686117190031 0.0364346741216 1.48192429834 0.151803553302 -0.155480014233 -0.483816282234 -0.15211118913 -0.0624773713059 0.597312945273 -0.241904812497 0.00672559963349 -0.346833897596 -0.292806573018 0.0665579527608
2.37222489734 1.01241313064 -0.979075534274 -0.687902661872 -1.87089511437 -1.33766391887 0.128641019525 1.18379305008 3.62621510965 -0.135896435779 -0.722941060582 -1.27650110321 -0.756664614686 1.06390015292 -0.647948447616 -0.0184924173554 -1.05769441937 -1.11579993263 2.38244950787 3.71231386119 0.30367345983 -0.386975710816 -0.816637264068 -0.258273988973 -0.382541857638 1.87123035338 -1.04737496854 0.181821943785 -0.598462367274 -0.757672194099 0.085962075148
0.788620165792 0.223228573716 0.499575838067 0.630958437732 -1.71457246333 -0.992230058074 -0.0211895918077 -0.222013904317 0.682242056302 -0.117406078647 -0.213447785767 -0.931789889869 0.0763118929777 1.31029312963 -1.54761938085 -0.0873733782168 -0.0618496000943 -1.20191490053 0.798126555723 0.254521254568 -0.0671898946784 0.455111184407 -0.973846409122 0.218119562362 0.0591353629474 1.19190226077 -1.85372901675 -0.0232456018244 -0.00425971218929 -1.59680773209 0.0875990860003
0.3701069672 -0.527655581277 0.199660947602 0.22030067206 -0.475146448474 0.0347451977359 -0.08055643643 -0.564252424708 -0.571393207488 0.102944302488 -0.0908184523165 0.204121140212 -0.37069602937 0.0517859726089 0.198884344349 -0.0645529022193 -0.259263930484 -1.67658183305 -0.338210901051 -0.582329804291 -0.0330365313215 -0.308641094211 -0.129112193474 -0.0209439912752 0.253557602564 -0.0510887552225 0.51669162966 -0.16492185489 -0.0457838327791 0.187106673986 -0.093353108255
-0.489003667417 -1.50486913517 -0.158757902297 -0.702429312666 1.5783462121 2.21598157905 -0.0484156321052 -0.744676590081 -1.95976123619 0.141310816731 -0.175233843477 2.27063723137 -0.929171664344 -1.25259076016 2.72688825167 -0.070707089808 -0.556141596588 -1.98934274658 -1.13539120815 -1.58718984302 0.2169984523 -1.0756679103 1.53866937289 -0.0420281996365 0.389809188019 -0.26332615044 3.80336911057 -0.186385800585 -0.40644274719 2.98649992984 0.0242549486264
0.496209473664 -0.371849249207 -0.0193701640557 0.541667108519 -1.13970659236 -0.250618688298 -0.0123825050628 -0.273433736029 0.441719287687 -0.118597791155 0.115434903268 -0.280269828279 0.406794583021 0.582447463018 -0.852375002239 -0.0368018941598 -0.481214153807 -0.229037947615 0.284211455472 -0.0840913511299 -0.517030293218 0.66882230124 -0.365574207688 -0.196658742589 -0.439825272522 0.226182256482 -0.859312074356 -0.0181734989888 0.421020205331 -0.749214182673 -0.0487491038315
0.31251993625 -0.519203209184 0.136815185815 0.325760316735 -0.860104707901 -0.320908187808 -0.0237779533997 -0.394029464184 0.0181674893355 -0.0535594867593 0.168622372881 -0.0453059805178 0.264315873151 0.0545798250746 -0.404121654981 -0.0181713796078 -0.211683502554 -0.487483409556 -0.0337118257337 -0.297117505337 -0.334035181758 0.217121157438 -0.245199993957 0.117168221314 -0.330414804825 -0.280334511318 -0.211891949525 -0.112580693377 0.349904455761 -0.205175284056 0.0498867182539
-0.132362562726 -0.496755436355 -0.0317697993741 -0.493125017661 0.115976905932 0.577353930446 -0.116605759622 -0.289307747375 -0.281856718167 0.0364991640762 -0.116133986437 0.882975221516 -0.285679723269 -0.747795022356 0.453752004043 -0.0319753341373 -0.380521789689 -0.663259500828 -0.154164880648 -0.971585077637 0.0229792360056 -0.0268064821214 0.588451538503 0.677919011276 0.0949094617627 0.373524260826 1.31744472581 -0.132312113725 0.102223708219 1.10056476717 -0.00280640495795
-0.128600393452 -0.633286480482 -0.115147012252 0.119161352112 -0.402814612112 -0.0203384979819 -0.0981087858897 -0.252204402532 -0.175808776551 0.0231478183277 -0.0131810432175 -0.355048009704 0.231953768087 0.0259670110294 -0.174644275226 -0.0927393558203 -0.301526552207 -0.0845714925661 -0.311647898516 0.175925214008 -0.0247085017307 0.386209459154 -0.158332663015 -0.324903085341 -0.250599791176 -0.528204733834 -0.0659259356555 -0.0505434948346 0.110259487731 -0.505972936153 0.0652415570339
-0.114811628088 -0.646008511954 -0.0138920205065 -0.111005928407 -0.493363218731 -0.468381383963 -0.0645297122239 -0.342907284929 -0.177087497939 -0.11271799822 0.052438708453 -0.482141836907 0.0779816978686 -0.168956740218 -0.464273904169 -0.0571779999699 -0.283312637539 -0.730417114227 -0.211803844847 -0.21519597435 0.0521319112803 0.0337491040326 -0.436410348061 0.186604787025 0.0404521191103 -0.275146143293 -0.0593335456152 -0.157645945678 -0.0545303891447 -0.232200054871 0.00739426172713
-0.562573460632 -0.491711740415 -0.395108196645 -0.630026025464 -0.049370464974 -0.0178618211922 -0.109112093614 -0.160949282525 -0.201412192369 3.42380688421e-05 -0.000941975238819 -0.0134559236753 -0.11214532928 -0.497702512119 -0.239593020084 -0.0415995644331 -0.736786816307 -0.848129877691 -0.26843280544 -0.691285461885 0.17152003635 0.0878368552871 0.178128777174 0.221875334784 0.266986769882 0.0842829762437 0.368014023182 -0.105438382413 0.0396557249385 0.198283675889 0.0898224203523
-0.817150046522 -0.533845799793 -0.135989321799 0.254580781402 -0.32716975767 0.44272607666 -0.095176984874 0.296642636989 0.273418757921 -0.0909749408556 -0.0727379957237 0.472800934153 -0.0314435554939 -0.46441648883 -0.175128224534 -0.0847858698625 -0.445116561941 -0.441593744167 0.0509532598665 0.0383146566216 -0.0519493574035 0.588484803717 -0.110278352437 -0.468637562896 -0.660796482527 0.169050890137 -0.322648341049 -0.114646244656 -0.334021182458 0.240291908354 0.0401186894261
-0.595227741037 -0.560884700405 -0.104850237818 -0.00833558889408 -0.236007585724 -0.115071990665 -0.140702592773 -0.14266283696 0.669213184282 -0.149084007678 0.0505949367181 0.00520205523784 -0.0676224568435 -0.470448164887 -0.503697990944 -0.125477871718 -0.381264167363 -1.10345840525 -0.047047577485 -0.23611845982 -0.153472488748 0.102220948249 -0.248360446735 0.0470488055457 -0.493456389123 -0.292416879161 -0.171610466776 -0.117467880039 -0.435772959313 0.0314722780735 0.0709940946381
-0.665821640522 -0.36111101045 -0.516580595595 -0.385200230456 -0.416979170541 8.24437817079e-05 -0.162716649569 -0.147718903615 0.361451723491 -0.0344175337382 0.0137912919811 0.0226853792976 -0.187129798799 -0.338764104019 -0.580630230037 -0.129800952347 -0.760923466232 -1.04939958848 0.0697092239869 -0.595556497313 0.025336294792 -0.0773544303013 -0.194778889622 0.183633883908 -0.20592502586 -0.0037652069763 -0.485950750681 -0.053795875394 -0.206786407148 0.143874446012 -0.0565433999037
-0.56960835273 -0.447522850597 -0.0806897750272 0.42886878054 0.0428376252761 0.330919307474 0.0092291409746 0.313100377309 -0.219409882234 -0.0547493236612 -0.0693341131838 0.246472216735 0.0246062700613 -0.146077058547 0.0663185898344 0.0358206732122 -0.158337940878 -0.39885731644 -0.153180105971 -0.230656946201 -0.00831453366589 0.391955514875 -0.134178702049 -0.277387055479 -0.261123734133 0.273934921906 -0.227532991062 -0.10811929815 0.034961841829 0.317112171509 0.0787376450775
-0.670730005308 -0.411363646909 0.0897373694055 0.191749689325 0.101988515562 -0.184456670644 -0.142658555172 -0.0699968946431 -0.0126669081312 -0.158505690361 0.0540737414075 -0.321820954771 0.0446310701565 -0.275107755819 -0.0956711649478 -0.149181518425 -0.134732321226 -0.840741979605 -0.0477892169904 -0.588844562485 -0.102894590233 0.0501535222516 -0.499702504923 0.291584895434 -0.104996343351 -0.177896934363 -0.280031160417 -0.11717269392 0.118013160084 -0.134495659026 -0.0650439670922
-0.95333649955 -0.464951569777 -0.346403451988 -0.407550999393 -0.227387149956 -0.180458245085 -0.0180264947536 -0.248016870722 -0.168520980636 0.0135248864624 -0.036651881608 -0.406594592801 -0.216799023256 0.14974882385 -0.297977833448 -0.11500747511 -0.495199792015 -0.846325735267 -0.152167861729 -0.745837637718 0.184595425472 -0.416076490523 -0.415249070426 0.511532691151 0.205131596472 -0.155065263625 -0.225607843139 -0.112655127066 -0.123910502729 0.169052853563 0.0314496188334
-0.131248912114 -0.168944519643 -0.134768482826 0.172360253607 0.709875956808 0.632946863914 -0.0176119579783 0.603896498461 -0.418244466257 -0.127206025288 0.0974920340214 0.299240376919 0.02457494873 0.138439760744 0.0102381476793 -0.136536550959 -0.18031918665 -0.456491163635 -0.120576779991 -0.161280759277 -0.25107173814 0.14175709796 -0.25854287873 -0.324798822087 -0.486465994321 -0.171759415556 -0.154850259126 -0.0519874520727 0.232221618457 -0.316493649232 0.0634312514572
-0.101550347711 -0.113848351326 -0.159060069546 -0.123519589912 0.242362994189 -0.0375238886859 -0.0407325307778 0.509564565857 0.0123579879161 -0.122191339995 0.158000347261 -0.12973969591 -0.10856436044 0.406059072675 -0.122180955244 -0.0235142981768 -0.385376556519 -0.903466405865 0.0254611612866 -0.167322691923 -0.171770433069 -0.087888504621 -0.592111481628 -0.548262363857 -0.596994988414 -0.0324775893339 -0.332552627722 -0.0972320515593 0.276567892601 -0.576410169624 0.00613371036872
-0.258896589496 -0.163876919654 -0.56273009324 -0.367340508518 -0.0568659924422 0.0279679612531 -0.113063889337 0.659086365176 -0.0019841459222 -0.106113238547 -0.0484670733763 -0.147889084771 -0.204359315687 0.607142418109 -0.428202059567 -0.138712452912 -0.389182593093 -0.893476698403 0.108348049599 -0.114877362164 0.375169806754 -0.33523012761 -0.487789144858 0.131241650435 0.0559879484841 0.706301517925 -0.334958135408 0.0123454593581 0.022416522554 -0.0695851807531 0.0302095928122
-0.241809967797 -0.198501848883 0.217035179887 -0.0192644463357 0.892316939863 0.18313749508 -0.0149242613018 0.151493076938 -0.840015496991 -0.158570206665 0.193942050992 0.268846277102 -0.00487574676565 -1.05668848279 0.206625973168 -0.0620252278105 -0.0346526044437 -0.364366272294 -0.352663511908 0.00861920834156 0.194484584493 -0.245382128721 -0.106601064287 -0.0724620777356 0.0201063430623 0.17306543185 0.182734909071 -0.108133013809 -0.289531837294 0.152820118968 -0.0636183789987
-0.0458408445981 0.0525374973792 0.0812800228156 0.0230975309659 0.397491111748 -0.24817735869 -0.106241645666 -0.0463688421788 -0.306112132126 -0.200248117457 0.0912944132159 -0.0241237256314 0.175211425571 -0.512139418497 -0.212602735081 -0.00177104899738 -0.19066161431 -0.657041230757 0.120526803553 0.311414231886 0.287688402336 -0.517702825237 -0.126730376539 -0.249080705904 -0.0933966618185 0.339755725872 -0.0650838760113 -0.0569316274465 0.166794834858 -0.218591154396 -0.0730013984696
0.382589555332 0.559524629958 -0.234472767381 -0.02624474278 -0.0282134117486 -0.460637002991 0.0219067530458 0.242793409455 0.772447732744 -0.150664098605 -0.14207224538 -0.571243556525 -0.0115458312707 0.244515585718 -0.958787089035 -0.128731635714 -0.209434087785 -0.588683654367 0.715090754941 1.12253994764 0.609926328346 -0.342500504209 -0.0414021758643 -0.0405356752665 0.116649697891 1.15945614138 -0.355786003438 0.0458455125277 0.185079948441 0.255625200885 0.0127778631479
-0.817341276253 -0.760828966575 0.118570223155 0.764438872135 0.971093449622 -0.339271406149 -0.110783316679 -0.619128656466 -1.68363151881 -0.0457315060224 0.641841550976 0.252876006079 0.0798521555833 -2.24439278518 1.30982585319 -0.0275659192109 -0.00281852854666 -0.0346452762752 -1.33150591259 -0.551183588015 -0.162234881869 0.366582189941 0.284219554283 -0.594026226155 0.267212252806 -1.12461267439 1.109939497 -0.108295790952 0.0679873216304 0.67347863605 -0.0778500126975
0.20752264609 0.100925559686 0.143711535111 0.102409700781 -0.132843756555 -0.768490886995 -0.0735437188001 -0.219165486001 0.369088864179 -0.0558319039914 0.027733591819 -0.53064875121 -0.0383837039494 -0.870305229013 0.319697808484 -0.0417620523826 -0.0346809956543 -0.694517399787 0.379591749039 1.03111211138 -0.0165162350405 -0.134150739887 -0.411411379491 -0.476851225384 -0.0030051012155 -0.123312397366 -0.230106265004 -0.124207208463 -0.0231948593148 -0.250613912931 0.0624136584132
1.65277929899 1.06433337427 -0.260355335704 -0.988998034323 -1.06930566631 -1.07375835486 0.173275895024 0.772165259633 3.41261820861 -0.0435047429452 -0.720309013648 -1.22388399715 -0.43069020266 1.24110311481 -0.990117959893 -0.0342889588937 -0.451792253132 -1.2421841827 2.64678724425 3.59501760337 0.399097935007 -0.856950868928 -0.714934859875 0.0212212622878 -0.0808292004442 2.04099565152 -1.09791700584 -0.0159835733345 -0.635533846817 -0.389268968813 -0.00798514977522
0.730054661533 0.710298490264 0.507985016945 1.10344667512 -1.99452924395 -0.767432227112 -0.117646504909 -0.299825466226 1.0964979729 -0.135681465072 -0.136886110343 -0.718304054225 0.511886305711 1.47485797287 -1.2475694235 -0.169112313942 -0.0232669037947 -0.515408801766 1.3485155007 0.564748445 0.00879242309029 0.544648244892 -0.773638947625 -1.48821617546 -0.0682377341197 0.00205367451372 -2.37536965046 -0.066291701177 0.657602594082 -2.28654140714 -0.0762444005899
0.431349648438 -0.579308911299 0.52698185031 0.198368976777 -0.57638329453 0.21691938296 -0.0647740723054 -0.675000542418 -0.104167342895 -0.014468603264 -0.108209521942 0.432150119062 -0.292617602697 0.3449003331 0.447646907046 -0.0520030144132 0.047362455272 -1.31816546382 0.058810098833 -0.0341927540712 0.14167785694 -0.48260549349 -0.293278774704 -0.956454641376 0.480927001104 -0.844692912776 -0.124408887487 -0.140506334422 -0.0129945754558 -0.0255460679873 -0.00272271393083
-0.610156346123 -1.72107030235 0.306215449845 -1.17724969935 1.70074632165 2.1843104783 -0.140866639287 -1.07273056342 -1.62256590955 0.134385539922 -0.555218760063 2.34865113703 -1.1708320231 -1.23292135382 3.07325638545 -0.162166703559 -0.00157964168585 -2.03403169012 -1.08971481511 -1.28471619355 0.88650124462 -1.60367099502 1.07085165917 0.442063523875 1.48869917319 0.161077767448 3.5566837406 -0.13064028813 -0.886231202306 3.52813666477 -0.0184505093889
0.413544356432 -0.131534823443 0.319397190791 0.663212573272 -1.07997927057 0.164960358592 0.00882002839562 -0.460352079841 0.174732381136 -0.128776205562 0.272111787775 0.208899223364 0.446648621479 0.704037514565 -0.520320869289 -0.0946831458661 -0.17690457647 -0.0898271797112 0.403377695646 -0.169817600251 -0.19609990173 0.195418427643 -0.198230688072 -0.917290005553 0.526144842969 -0.226081797857 -1.07069366697 0.038581492119 0.349306208692 -0.884803714163 -0.0238677310644
0.404770173429 -0.372312190559 0.336324439536 0.248477595745 -0.732345185399 -0.0709473385257 -0.0712501393253 -0.729051833856 0.0339556993761 0.0322097565462 -0.0252973231742 0.362412549051 0.193713606183 0.181448610329 -0.339268667789 -0.0587982855897 -0.154837430327 -0.600039186454 0.0878604995121 -0.276642463679 -0.168212332977 -0.207540868839 -0.140128118312 -0.558027188899 0.659579191635 -0.317726428032 -0.436098843965 -0.0014421083621 0.0892463368154 -0.234771403765 -0.0588665970079
-0.183595234904 -0.589288702666 0.42422374638 -0.69311373474 0.452945491342 0.684090903236 -0.0624249337838 -0.6209629365 -0.613298414295 0.0351164738024 -0.21364841715 1.02045189442 -0.227225801661 -0.755025048299 0.541513998121 -0.108489150904 -0.000490507102682 -0.974704149212 -0.00172927553676 -0.83438619691 0.308779196788 -0.831935004296 0.681871799165 0.818501122842 1.58529797062 1.09292004333 0.996550118967 -0.0411089487538 -0.321359536331 1.78624377673 0.0927356369163
-0.0879890490794 -0.381448274109 -0.00988832371228 0.84376118587 -0.252880723506 0.189431415008 -0.0488337916041 -0.411476211016 -0.392646496163 -0.11450288561 0.141621438083 0.273906779033 0.537284238463 -0.0563549260514 0.138217872279 -0.138263940026 -0.119630640873 -0.210832642148 -0.339185505596 -0.0653245046763 -0.0378676927973 0.59867350919 0.0570582257717 -0.87388190871 0.167801808053 -0.731210069989 0.212326218036 -0.014802585599 -0.167126978459 -0.145783546639 0.0425826910337
0.0233770572145 -0.419718589264 0.126061422517 0.245610502721 -0.168507932357 -0.315572438352 0.00438736599251 -0.335283104048 0.0153524017714 -0.121637427841 0.0320806332135 0.0820630604047 0.267025252931 -0.016802739139 -0.163412107539 0.00308521110956 0.0329870971793 -0.525249775852 -0.234941326651 -0.232589889536 -0.161838408758 0.237272968118 -0.189680874678 -0.393407084302 0.610005377918 -0.348955580761 -0.0318979471484 -0.114421948611 -0.59564702236 0.0272048736665 0.0217192594563
-0.0871745837395 -0.199369365042 0.292623974608 -0.774560288152 0.0784123062494 -0.162486576771 -0.117212003302 -0.0460553623441 0.00630501557241 0.00566063240712 -0.289752386645 0.238430430968 0.0584168779785 -0.394197530904 -0.173716954566 -0.105235570371 -0.0664912738436 -0.762258800639 0.0566775146873 -0.319334759681 0.310150553134 -0.306952779529 0.224441666505 0.972624179287 1.40337548076 1.12227453805 0.0627139960283 -0.0285648046805 -0.812878195446 0.989311035245 0.0631935548582
-0.673259898078 0.181761842759 -0.0514977715467 0.781430045337 -0.349722521108 0.102533901182 -0.0730515491951 0.326560274505 0.258150739566 -0.102424007434 -0.0391195654709 0.302768502326 0.397170065532 -0.593180047714 -0.615723127682 0.0119242476027 0.0509639563104 -0.454316316312 0.168205841515 0.21520417042 -0.00186467788421 0.351583227662 0.0261287723756 -1.07640082871 -0.430665189976 -0.507077543486 -0.143759262341 -0.0729977984496 0.107835793922 -0.0062009380772 -0.00356853667876
-0.808444272624 -0.227128287669 0.130346294186 0.307797257073 -0.242731348962 -0.297957185318 -0.0699901288961 -0.0941225072903 0.465202850279 -0.118697656609 0.0553662134914 -0.0274525615403 0.207425255578 -0.637119274005 -0.856710740584 -0.126905335677 0.166885890863 -0.793042023671 -0.0222810801041 -0.2539276542 -0.0639926708055 -0.0111905907382 -0.152909911255 -0.526433983863 0.0745739835218 -0.555291662428 -0.322190075096 -0.0824503987494 -0.15346446382 -0.0723183816285 -0.0653669063146
-0.647741642584 0.110950479981 0.101446009116 -0.863634146637 -0.203449564572 -0.265051386061 -0.0595574409805 -0.125066141644 0.644303934687 0.00877022445401 -0.274239052893 -0.163638180227 -0.0298792924413 -0.272895755974 -1.00634316114 -0.00356705747673 0.252951154288 -0.910910400739 0.262492650564 -0.0830464253105 0.360952490496 -0.502029059443 -0.0065673206146 0.330464562533 1.1477944626 0.617360154288 -0.640612366918 0.00306745341504 -0.308581747699 0.523427467284 0.0680749640371
-0.616393517922 0.264787645144 -0.141609955252 0.742991424279 0.0455249932275 0.302913004814 -0.119969484619 0.60924919308 -0.443515245854 -0.106902138837 0.055824559243 0.249057195889 0.710375305637 -0.389420425256 -0.303268391215 0.0458275581693 -0.0079492033766 0.263069692791 0.111443363311 0.139566713715 -0.218817618639 0.298426578359 0.162339778778 -1.5722776096 -0.490751376916 -0.551674165599 -0.266544714832 0.0288912673585 0.532648826914 -0.21244090218 -0.0626644432927
-0.655890677704 0.231058452502 0.108857860418 0.205018078809 -0.10470512869 -0.340999968297 -0.00200579557014 0.23301889782 0.0331722045836 -0.108273889278 0.0870455893384 -0.312844360639 0.435759117726 -0.126182891885 -0.330171648389 0.0266227658398 0.184321466868 -0.0928240808783 0.152542046025 -0.430733060164 -0.0601744698141 0.0240485917137 -0.511011836203 -0.844075103286 -0.0926494749242 -0.27000155241 -0.405923636122 0.0488937981514 0.179766825037 -0.323617097989 0.0257093811785
-0.661013344749 0.369214308355 0.290576192987 -0.50787155287 -0.396323295937 -0.340884144777 -0.0492352901743 0.312535938773 0.148151311138 0.000416091398388 -0.256408128835 -0.701771256192 0.241747060076 0.396886534981 -0.882777357178 0.00360379997237 0.447025284413 -0.115898349093 0.366139498563 -0.311154440064 0.306147967879 -0.61262465092 -0.358228796747 -0.0249647360019 0.934803144683 1.01575518728 -0.301881651099 -0.151408647815 0.0384296948402 0.327060853679 0.0159541440257
-0.177580873002 0.111546345896 -0.0192522263081 0.810108208581 0.581340053131 0.656244735102 -0.0287113323782 -0.0258865067171 -0.742456008078 -0.0617355037087 0.356442803647 0.335639708082 0.63001109271 0.356219204863 0.481798027701 0.0307694486027 -0.172347022872 0.242042311752 -0.436716793098 -0.370738034694 -0.218421626079 0.0500029147068 0.0844330843508 -1.28570313334 -0.11197194347 -1.23670647465 0.252340036715 -0.0294463518675 0.235189682851 -0.26123012647 0.0483776077909
0.117952396962 0.0684490293227 0.084657381067 0.185714292358 0.319604898266 0.140642898092 -0.13781478732 -0.128578636712 -0.311236162991 -0.113698202013 0.165711250666 0.137450929318 0.404611593513 0.727118350296 0.444939559745 -0.0664914962199 0.0464363540658 -0.163695267778 -0.48304410357 -0.350858286723 -0.277464797656 -0.340108885466 -0.303402639372 -0.855589178581 0.144968150198 -0.390515511778 0.117877640965 -0.0990055307652 -0.184563641728 -0.372555294109 -0.0167190851583
-0.0611804395819 0.396176270376 0.130868516347 -0.608351467008 -0.23613193231 -0.182217084066 0.0553708223026 0.213467838175 0.0610422476497 -0.0923654401697 -0.284599766505 -0.390327650685 0.00362277475497 1.22954150798 -0.278291904699 -0.129327376163 0.311931446695 -0.435463664918 0.187185389275 -0.0863294817762 0.391457246663 -0.900050958554 -0.39683286728 0.365651968926 1.34004864698 1.61616552829 0.00533555000457 -0.0421538971242 -0.365256385433 0.380684372685 0.0119040634544
-0.133623879877 0.142341063143 0.287730470488 0.801605594246 0.523051564726 -0.00861605954052 -0.0950947281089 0.231523803011 -1.00305576573 -0.0416149037372 0.588213857131 0.167480044925 0.430112715302 -0.750290196043 0.493081704477 -0.0305845781752 -0.0283064415333 0.0482556095538 -0.561053805635 -0.0208721470774 -0.184659336323 -0.0405142415233 0.354382744778 -1.42725881517 0.162768228279 -0.81023452072 0.317091584417 0.0527322124709 0.332795894577 -0.18820460272 0.0644109860454
0.109096443323 0.00591949128468 0.4631905561 0.351885013017 0.203134143871 -0.312018648774 -0.0743426723937 0.0388097683589 -0.46785666911 -0.200877336625 0.214466569874 -0.240733382257 0.320932382145 -0.446893367345 0.157100551535 0.0244843148811 0.0733906625184 -0.440970846826 -0.179106120234 0.111292106493 0.0114937297838 -0.360544079131 -0.0979189850421 -1.07582829363 0.421333838048 -0.0749797458679 0.023667746446 -0.0424547475846 0.335003843772 -0.17725181041 -0.0380560084737
0.500769116024 0.57641786891 0.395588650417 -0.468274845542 -0.407273439425 -0.720854960248 0.0875043213481 0.292573324987 0.746392251765 -0.168298611742 -0.521456320356 -0.642637743776 -0.119744225761 0.5461284592 -0.793751462795 0.0207871873052 0.494363557025 -0.731952128026 0.808060980266 1.12896375372 0.611344439981 -0.864795631375 -0.335924340539 0.489593987113 1.32983048668 2.47377497216 -0.549904715454 -0.0042710236876 0.114296559567 0.534924966426 0.0362256643579
-0.592214719764 -0.539752192566 0.147997548515 1.09573392489 1.05280470789 -0.321694990567 -0.195470747088 -0.314455981643 -1.81568827501 -0.0977833106487 0.759862975046 0.154168442822 0.428222484129 -1.88837214735 1.42215852229 -0.0240194507262 -0.0249643175705 0.25544016099 -1.30650609136 -0.747887662767 -0.409883350529 0.299907697808 0.851548072353 -1.92446996736 -0.0488098388125 -2.55893893681 0.827287781165 -0.147786605351 0.576396342199 0.291398413119 -0.0511319828472
0.321238564548 0.0653975840849 0.560480008576 0.352550095022 -0.00484633069778 -0.893895109979 -0.0383290512846 -0.244631483731 0.315636815757 -0.205718213861 0.160706424412 -0.544072558826 0.181670385417 -0.911248536248 0.373140702879 0.0104368412896 0.355593516477 -0.404234871485 0.181720741203 0.678778747292 0.0457730855206 -0.115985791339 -0.268356468877 -0.920664791348 0.278467538079 -0.624734741374 -0.203679060008 -0.0319634777482 0.104831522189 -0.00453933010241 -0.0570445289624
1.72873535166 1.01534377549 0.37139349756 -1.28936550991 -1.18461643023 -1.44999675794 0.0277960331381 0.658202102596 3.29420524846 -0.0810456543145 -1.02266487823 -1.40180406022 -0.54672124222 1.15124524944 -0.728734690301 -0.0400039358968 0.365225874965 -1.23851913642 2.47760069062 3.18934195203 0.763127829063 -1.10970066519 -0.782588965385 1.06113402977 0.937476457856 2.92428242107 -1.24711560622 0.0465381790143 -0.671430307341 0.0542501383542 -0.0555549633656
0.535551572012 1.14866126294 0.387566426966 1.9919784285 -2.29218387078 -0.44208366031 -0.0343010152136 -0.544701127336 0.891233536342 -0.0827027384756 0.0623559178908 -0.07048931843 0.735492564705 1.70177433505 -0.461277193792 -0.0751611179406 0.342511662584 0.0897203683765 1.01425046803 -0.26075734486 -0.189178579085 0.59973387677 -0.397944520822 -2.56282504825 0.00934436529666 -1.21833704348 -2.60883848201 -0.0242001207843 1.21120651455 -2.48311490899 -0.0561845779515
0.0621310132974 -0.617444735071 0.779368498914 0.199297041512 -0.680708641393 0.471402904722 -0.0466601900994 -0.961411929555 -0.608725965475 0.0796477414215 -0.310481922501 0.701500897397 -0.0416541457058 0.00444200434949 1.23363257989 -0.0243202221788 0.78859715713 -1.11670240938 -0.444505372117 -0.693957433409 0.521847314636 -1.07781789981 -0.258536156895 -0.890835585225 1.32793033874 -0.828960540703 0.167414523667 -0.185298276445 -0.237637441669 0.722085338807 0.0168775798804
-1.21115556926 -2.12622838438 1.18944522504 -1.76904389408 1.70576808626 2.08892584353 -0.070407691862 -1.63079299005 -2.26525014418 0.326550177409 -0.885105786653 2.49353494025 -1.18005627427 -2.12020569912 3.37394918623 -0.116398603734 1.60817605817 -2.17849776014 -1.79101051981 -2.16689101377 1.97038313097 -2.61914486322 0.499586523698 2.4487031067 3.65263923689 1.64871214205 3.79725559866 -0.264591579206 -1.90572226069 5.16581327269 0.0584187090929
0.537368501102 0.97404659728 0.178127286807 1.33109355618 -1.59458882576 0.087687616099 0.00093459603391 -0.582186208837 0.724219039168 -0.00502629049749 0.323957777536 0.424444151408 1.03213328164 1.27753005339 -0.561113342608 -0.0982654589122 0.049319217264 0.461908826583 0.573658082277 0.336516943414 -0.590080347094 -0.0548614996102 0.156066880888 -2.3181655152 -0.466143331935 -1.13534391937 -1.78902596885 -0.102990275246 0.592370078073 -2.33051012418 -0.0383809359997
0.338302644016 -0.137273736257 0.574810172522 0.321459474268 -0.542050639101 0.131096314503 -0.032924288585 -0.895936581111 0.0538024749959 0.0618088661235 -0.056453158077 0.542797572633 0.370089563698 0.358431564792 0.293048367691 -0.0359462096622 0.370323512122 -0.373435179706 -0.140713912822 0.00548184538697 0.103641981436 -1.08763850738 -0.204423069082 -0.589010237178 0.821624980087 -0.425623189576 -0.629280679384 -0.145485021461 -0.435931194504 -0.519216752779 -0.0894268800331
-0.697157276921 -0.663622469638 1.25058841024 -1.08216336659 0.828476832277 0.788511102877 -0.0681081200105 -1.09081064848 -1.29614441807 0.133596546671 -0.781971978381 0.957931364124 -0.198275760944 -1.30161008945 0.634807016953 -0.170208477846 1.34930723646 -0.989691343983 -0.807279324013 -1.02292024605 1.28945182559 -2.02885432486 -0.0143747364784 2.72217211752 3.2075105386 2.33701850377 1.35069048011 -0.151493839947 -1.5249221797 2.63998232419 0.0425074291868
0.013479748223 0.647093316676 -0.177285250546 1.4140993374 -0.22085376068 0.333659140447 0.00703045868123 -0.105376676427 0.188917246091 -0.175290526513 0.424202496478 0.429580586901 1.18175112699 0.661148139893 0.223643493467 -0.0967995503913 -0.0313492530158 0.506779077965 0.0389906023023 0.113284847238 -0.964917971862 -0.0086391304927 0.567715477741 -2.2653968037 -0.786045908581 -1.35473301881 -0.447072253098 -0.0761365329914 0.827745782973 -1.66358444581 0.0198202236437
-0.11838982937 -0.251987731563 0.466839878538 0.317057048526 -0.0262257057978 -0.0476404951796 -0.0385968718176 -0.575725795483 -0.0235849723424 0.0522604378479 -0.172895526908 0.1110146789 0.542141187199 0.152427339532 0.0597773608558 -0.153619199374 0.645759112341 -0.394351115416 -0.251175589424 -0.498533873565 -0.231384100584 -0.83132926952 -0.247765751663 -0.335665465577 0.856583290642 0.0758956141921 -0.1244406357 -0.165735311339 -0.397916591942 -0.25269450438 0.0470963141776
-0.793693071159 -0.609846060416 1.19106190394 -1.03090579933 0.440110926984 0.0428719666601 -0.17111368044 -0.567723794145 -1.07377866482 0.140179319999 -0.690429346461 0.0197738756896 -0.0260019230281 -1.06693712301 -0.349373254356 -0.223114306189 1.60461045486 -0.830118995337 -0.743189154587 -1.03781722392 0.978660476572 -1.57753261872 -0.306332954626 3.13522545368 3.34200717557 2.93296916986 0.458908883024 -0.152449238973 -1.16401679235 2.24420992196 0.0975871674007
-0.630159002421 0.477144745492 -0.188185463557 0.933185111641 -0.175150847635 0.486744764971 -0.0884231856114 -0.00935826762141 0.426847688078 -0.0929040112808 0.370899484354 0.689466624521 0.959201562632 0.441809153214 -0.689457669597 -0.106927431353 0.164353124208 0.253500372126 0.296290915569 0.114132947581 -0.637346946318 -0.0566020279379 0.716973698767 -2.14342643818 -0.617617772934 -1.85320251598 -0.0194226863727 -0.0902622251176 1.00584662727 -1.11959422363 0.0227045980626
-0.866903455365 -0.355258172056 0.639392737086 -0.287988985832 0.0736857554183 0.031934644019 -0.0556535537608 -0.720625421462 0.115637694562 0.0432802263068 -0.0134441612702 0.277055955326 0.42722732602 -0.0742970227991 -0.785099259317 -0.0846269091929 0.981749746158 -0.595328454073 -0.259509039578 -0.594508320191 0.0304278345286 -0.958969540961 -0.281668391377 0.0624223605262 1.16759596587 -0.40849310841 0.182596508344 -0.0260298540661 -0.379669013943 -0.0375018520745 -0.0780116191357
-1.35749153431 -0.781353728622 1.35953607726 -1.63896010849 0.0422060188186 -0.178078111567 -0.145055448713 -0.677449820754 -0.51995355978 0.00546674627899 -0.820216376351 -0.0993531746317 -0.0425350565783 -0.413041284227 -1.3936510192 -0.15822032314 2.00104870875 -0.932617882961 -0.664439755712 -0.822601133151 1.29715217328 -1.88042767979 -0.651049841964 3.23939113496 3.73055477329 2.81769053673 -0.0142531657675 -0.0445721107159 -1.02414535728 1.99215772565 0.0986135904812
-0.776761798195 0.717541415445 -0.277604735173 0.980836708161 0.69899360967 0.322758964077 -0.100404607046 0.284960661877 0.049640066903 -0.107376807227 0.457351885797 0.628606306571 0.777192327223 0.641072931214 -0.324429844717 -0.0826639035444 -0.0739168366666 0.473346100093 0.231256000178 0.0438063763277 -0.67231111609 -0.127109867257 0.518700642054 -1.82673211975 -0.982205353412 -1.79576088726 -0.223665942357 -0.0094458217059 0.697254734221 -0.976540957577 0.0149041886342
-0.538210863526 -0.200020142712 0.474365757046 -0.268595420924 0.449454470272 -0.339051038531 -0.0288447571601 0.0228232337569 0.212040175149 -0.0645002057982 -0.155537504068 -0.0476713312811 0.366778406662 0.370177193299 -0.739663746805 -0.0512629704389 0.717123228638 -0.518585926508 0.0322600201788 -0.161044664347 0.0312187077211 -1.07454002925 -0.562300108423 0.199077856633 0.391921069042 -0.0534918088369 -0.218558167999 -0.131056861668 -0.592289187 0.0258004916937 -0.013746097584
-1.034379968 -0.317039162755 1.47325364837 -1.69732215397 0.0333849342618 -0.562049508696 -0.100598001558 -0.246955171284 -0.0519944162212 0.0796485130385 -0.816835144815 -0.434730064916 -0.100219607922 0.413804069096 -1.64410350756 -0.155801809502 1.83093864881 -0.905603970955 -0.171084866399 -0.361210926451 1.24387437472 -1.98733807514 -1.10168751222 3.29183652511 2.85482161914 3.34609031285 -0.243441864572 -0.0693305302277 -1.36186369667 1.66201834131 -0.0254523994768
0.234248844586 0.806525293938 -0.11702427216 1.21913363852 1.16260835413 -0.0401058838444 -0.106158918623 0.272725501096 -0.260739992938 -0.0473015542521 0.447799361734 -0.0121242537175 1.11739203013 1.05297385281 0.0906308357634 -0.105907046401 -0.267331429499 0.736685747502 0.175731330339 0.241915539138 -0.721210519331 0.232180830082 0.369388615223 -1.7832460469 -1.17312001064 -2.28688733214 -0.246685931164 -0.034752115024 0.719395680101 -1.19744118786 -0.0849936638723
0.182863835196 0.0884796649012 0.62350895657 0.0855530784728 0.887654215822 -0.728063846022 -0.0369943025379 0.0641084568838 -0.0282340923985 -0.0655870109135 -0.00495640108226 -0.79574162843 0.64201659792 0.779045603328 -0.158925449341 0.0214467809117 0.536640884333 -0.116359459225 -0.107545669049 -0.0319846682211 -0.0332751267278 -0.839589645103 -0.761704052738 0.216989996163 0.12276048385 0.114464584797 -0.0575073948818 0.0155739508829 -0.512130354397 -0.246410788177 -0.0613219318999
0.149485712889 -0.106456567915 1.68341002302 -1.422142886 0.11251171412 -1.42613697116 0.03292955433 0.115994735574 0.624133757809 -0.0922402071942 -1.10676876065 -1.42466240887 0.123913239253 1.01044843328 -1.24441283512 -0.144343283938 1.8573732221 -0.820335518348 0.182083031145 0.265156536416 1.48161148284 -1.75899421856 -1.57515747951 3.5982976204 2.84960599216 4.10707680388 -0.189183597384 -0.0219253802172 -1.57295945282 1.3425121505 -0.0136151472003
-0.205690142519 0.283028398317 -0.0294205112506 1.50412558333 1.14723686475 -0.303785857753 -0.103101559404 0.291205611079 -0.835678860923 -0.155571337098 0.827612473067 -0.0932958118176 0.875934796545 -0.77784668541 0.764462577534 0.0261814826059 -0.10261799846 0.622916243789 -0.695174108044 -0.412774817253 -0.656075695081 0.464024689097 0.792662079878 -2.40862637166 -1.04196004894 -2.7851676724 0.512425757879 -0.0236848703402 1.36809858504 -1.08844285403 0.0215589313569
0.0826260322208 -0.391821369681 0.768917863976 0.154587926423 0.488076373833 -1.21142217424 0.0122245452746 0.0305623186133 0.133276630254 -0.16304093046 0.183759998963 -1.08160830566 0.564945119153 -0.479076237992 -0.116071899067 -0.0511993385632 0.719481410659 -0.0558318441036 -0.367300799582 0.197396488025 0.282243711829 -0.595788407066 -0.673963337332 -0.208971304557 0.40202251427 0.122056023972 0.153987657609 0.0359364972576 0.186000536468 -0.549012251803 -0.0734266207043
0.615995660018 -0.0488860468218 1.59008125985 -1.68953206009 -0.713513020581 -2.08410834225 0.143525973657 0.261196243918 1.56699916442 -0.0478249313234 -1.07586703468 -1.92265737648 -0.0283244975217 0.710002481122 -1.46522138734 -0.0110546221088 2.08927449595 -1.03638838921 0.888333463232 1.33264275359 1.83910052155 -1.74931845073 -1.79031630475 3.51806729341 2.61604390236 4.96411830287 -0.421982618871 0.00716398877402 -1.04286300805 1.09733329302 -0.0264603001198
-0.312046082432 -0.513635106289 0.178678770837 1.3394940047 1.40025503954 -0.188785876637 -0.0185068132571 -0.252947982468 -1.25749599168 -0.182237023471 0.851966695523 0.205657608894 0.732125117841 -2.24943680812 1.45878053 -0.0585606255607 0.22096979114 0.0554713131338 -1.32793918794 -0.510521492752 -0.534698347774 -0.385864387245 1.13540791867 -2.76213888023 -0.51652540673 -2.91697333097 1.29327107871 0.0261115385635 1.07270256041 -0.211152813932 -0.0553406107974
0.455727480095 -0.523405008077 1.06318509986 -0.371942154981 -0.0639703193037 -1.18811173906 0.0936366158388 0.0403363319404 1.03304045756 -0.0438345972404 -0.0756025512002 -1.05732481508 0.225912357302 -1.1444362703 -0.149231490289 -0.0669105444771 1.2050625654 -0.8924925663 0.157073391605 1.04270720177 0.525080339948 -1.29647137976 -0.780536010286 -0.316915973152 0.510282135489 0.415715167553 0.0443592072 0.0745882261695 -0.375623783658 -0.00789842764528 0.0483965856026
1.89980487302 0.336946636471 1.77937509823 -2.50203400368 -1.67696861906 -2.29605792088 0.203138798041 0.960044391551 4.00547545686 -0.148029261973 -1.66497005445 -2.39748548006 -0.784521061593 1.19373313902 -1.83383740524 0.0829687136609 2.08137460366 -2.04177392671 2.40595770593 3.71563374491 2.10789033866 -2.78583453789 -2.17047296972 3.65849610607 2.20125604329 6.16351532798 -1.48612230323 0.106975071603 -1.66208283887 0.799079342476 -0.0191940555895
0.0310643516732 -0.0583328526372 -0.0573344302234 0.0247367142437 0.00721716213879 -0.096758000706 0.0486613271299 -0.00145793464528 0.00762781999744 0.0581498280722 0.0643928443942 0.0314901195263 -0.0735785520749 0.0863130701906 0.0706670441767 -0.0664554577956 0.0766032557334 -0.000769170131813 -0.0317063009658 0.0558287955394 -0.0517469413053 0.0483486804634 -0.0360949229028 0.0618866845913 0.0163137746982 0.0602160212049 -0.0751754206506 0.0741652026176 0.0316094552611 0.0192696290678 -0.0396336298136
